tree
version=v3
num_class=1
num_tree_per_iteration=1
label_index=0
max_feature_idx=14
objective=regression
feature_names=distance surge_multiplier name_Black name_Black_SUV name_Lux name_Lux_Black name_Lux_Black_XL name_Lyft name_Lyft_XL name_Shared name_Taxi name_UberPool name_UberX name_UberXL name_WAV
feature_infos=[0.02:7.8600000000000003] [0:0.0097811258674037321] [0:1] [0:1] [0:1] [0:1] [0:1] [0:1] [0:1] [0:1] none [0:1] [0:1] [0:1] [0:1]
tree_sizes=2930 3088 3085 3077 3074 3113 3113 3108 3114 3109 3134 3122 3117 3139 3138 3117 3132 3118 3104 3161 3162 3130 3143 3160 3158 3116 3161 3164 3145 3175 3124 3168 3155 3134 3149 3173 3131 3175 3116 3126 3181 3124 3134 3087 3111 3136 3122 3129 3095 3072 3128 3121 3095 3114 3090 3056 3104 3095 3090 3088 3075 3098 3067 3125 3073 3075 3087 3088 3045 3112 3116 2995 2964 3100 3117 3063 3045 3091 3112 2939 3104 3051 2999 2972 3016 2983 3007 3019 3063 2986 3096 3045 2907 3068 2978 3127 2990 3003 2937 2998

Tree=0
num_leaves=31
num_cat=0
split_feature=9 3 6 5 2 0 4 13 8 4 13 8 0 0 0 0 0 0 0 0 0 0 0 0 0 1 0 11 0 0
split_gain=31818 18620.4 21997.3 10812.7 10315 8004.51 4508.25 3490.06 4520.39 1828.54 1901.94 1735.11 1604.95 1213.05 1210.57 804.568 388.88 370.893 320.906 285.952 260.842 221.645 205.46 194.621 183.627 151.21 146.522 141.847 137.291 129.846
threshold=1.0000000180025095e-35 1.0000000180025095e-35 1.0000000180025095e-35 1.0000000180025095e-35 1.0000000180025095e-35 1.6450000000000002 1.0000000180025095e-35 1.0000000180025095e-35 1.0000000180025095e-35 1.0000000180025095e-35 1.0000000180025095e-35 1.0000000180025095e-35 1.6850000000000003 2.1950000000000007 1.9450000000000001 3.5350000000000006 2.4450000000000007 2.3250000000000006 2.7550000000000003 3.2050000000000005 3.5350000000000006 3.5350000000000006 2.4850000000000008 3.5350000000000006 1.0350000000000004 1.0000000180025095e-35 3.5350000000000006 1.0000000180025095e-35 1.0350000000000004 0.92500000000000016
decision_type=2 2 2 2 2 2 2 2 2 2 2 2 2 2 2 2 2 2 2 2 2 2 2 2 2 2 2 2 2 2
left_child=1 2 3 4 5 9 7 8 15 10 11 24 -2 -6 -5 22 -4 -3 -8 25 -9 -15 -7 -16 -1 -10 -14 -24 -12 -11
right_child=12 17 16 14 13 6 18 20 19 29 28 -13 26 21 23 -17 -18 -19 -20 -21 -22 -23 27 -25 -26 -27 -28 -29 -30 -31
leaf_value=2.5716677314265848 2.5222654034841825 2.7057505985273047 2.7095660944802562 2.664894267738839 2.6575272869368427 2.5998814967332753 2.663048576744163 2.6583926408158902 2.6507826341186114 2.6161043333723835 2.6120337439112165 2.6185684144939043 2.5627007058264826 2.6882870492736131 2.697945336600776 2.6338145213435391 2.7319004059802259 2.7257814724936416 2.6870734661950832 2.6800326327924608 2.6894471972816971 2.7177902570382968 2.6135407432259656 2.7270923629866672 2.5831136768712808 2.6848473505893353 2.5873671755835939 2.6009537236087947 2.6314068067722962 2.638236120872949
leaf_weight=21849 13807 21485 21317 16212 19596 31571 10745 19590 15346 3619 5740 13554 19130 15953 16664 12107 12291 16224 11521 5455 3138 3030 34921 2656 39098 1424 2755 12040 10085 9910
leaf_count=21849 13807 21485 21317 16212 19596 31571 10745 19590 15346 3619 5740 13554 19130 15953 16664 12107 12291 16224 11521 5455 3138 3030 34921 2656 39098 1424 2755 12040 10085 9910
internal_value=2.6395 2.64743 2.6406 2.63288 2.62671 2.61959 2.63378 2.62693 2.61973 2.59803 2.5929 2.58621 2.54896 2.67498 2.68504 2.60982 2.71773 2.71437 2.67548 2.66014 2.66268 2.693 2.60612 2.70195 2.57901 2.65368 2.56581 2.61031 2.62438 2.63232
internal_weight=0 407141 369432 335824 300292 261713 157858 135592 112864 103855 90326 74501 35692 38579 35532 90639 33608 37709 22266 22225 22728 18983 78532 19320 60947 16770 21885 46961 15825 13529
internal_count=442833 407141 369432 335824 300292 261713 157858 135592 112864 103855 90326 74501 35692 38579 35532 90639 33608 37709 22266 22225 22728 18983 78532 19320 60947 16770 21885 46961 15825 13529
is_linear=0
shrinkage=1


Tree=1
num_leaves=31
num_cat=0
split_feature=9 3 6 5 2 0 4 13 8 4 13 8 0 0 0 0 0 0 0 0 0 0 0 0 0 0 1 0 0 1
split_gain=25772.6 15082.5 17817.8 8758.29 8355.17 6483.65 3651.68 2826.95 3661.52 1481.11 1540.57 1405.44 1300.01 998.55 983.801 651.7 325.397 310.059 265.191 254.312 229.858 213.146 204.663 166.422 158.543 124.533 118.673 114.9 113.257 112.012
threshold=1.0000000180025095e-35 1.0000000180025095e-35 1.0000000180025095e-35 1.0000000180025095e-35 1.0000000180025095e-35 1.6450000000000002 1.0000000180025095e-35 1.0000000180025095e-35 1.0000000180025095e-35 1.0000000180025095e-35 1.0000000180025095e-35 1.0000000180025095e-35 1.6850000000000003 1.6850000000000003 1.9450000000000001 3.5350000000000006 2.1750000000000003 2.6650000000000005 2.8850000000000002 2.7350000000000008 3.0550000000000002 2.8850000000000002 3.2250000000000005 2.4850000000000008 1.2750000000000001 2.7550000000000003 1.0000000180025095e-35 1.0950000000000004 1.1050000000000002 1.0000000180025095e-35
decision_type=2 2 2 2 2 2 2 2 2 2 2 2 2 2 2 2 2 2 2 2 2 2 2 2 2 2 2 2 2 2
left_child=1 2 3 4 5 9 7 8 15 10 11 24 -2 29 -6 23 -4 -3 -8 -10 -9 -15 -16 -7 -1 -14 -25 -13 -12 -5
right_child=12 17 16 13 14 6 18 20 19 -11 28 27 25 21 22 -17 -18 -19 -20 -21 -22 -23 -24 26 -26 -27 -28 -29 -30 -31
leaf_value=-0.058454099961030161 -0.1055067026382889 0.061290561500979779 0.061287476872056858 0.017561289426667733 0.014861683136431708 -0.035652213723838193 0.022509004037912474 0.014183923449345074 0.0073761372148149502 -0.0064612693532349183 -0.023323415631690242 -0.028760734891778078 -0.074224267348945661 0.045448254821748968 0.041104504399676993 -0.0051124921232705628 0.081022596414087378 0.080875109189554262 0.044444410027607267 0.028793479169195807 0.036000312549184878 0.065377265054000377 0.064116946281169956 -0.026997932695861395 -0.047961839075959682 -0.059120937059736305 0.0081345114904378072 -0.010294207120240102 -0.0062404809189848245 0.053264816637888693
leaf_weight=37608 13807 25972 18064 12888 18000 31571 12240 15766 10594 13529 6821 6268 10432 11978 15422 12107 15544 11737 10026 11631 6962 9723 5157 45979 23339 11453 982 7286 9004 943
leaf_count=37608 13807 25972 18064 12888 18000 31571 12240 15766 10594 13529 6821 6268 10432 11978 15422 12107 15544 11737 10026 11631 6962 9723 5157 45979 23339 11453 982 7286 9004 943
internal_value=0 0.00714286 0.000993636 -0.00595381 -0.0115089 -0.0179132 -0.00514649 -0.0113098 -0.0177894 -0.0373183 -0.0419401 -0.0479591 -0.0814791 0.0409941 0.0319364 -0.0267084 0.0704151 0.0673863 0.0323861 0.0185845 0.0208667 0.0543773 0.0468713 -0.0300378 -0.0544362 -0.0663203 -0.0262633 -0.018834 -0.0136037 0.0199956
internal_weight=0 407141 369432 335824 300292 261713 157858 135592 112864 103855 90326 74501 35692 35532 38579 90639 33608 37709 22266 22225 22728 21701 20579 78532 60947 21885 46961 13554 15825 13831
internal_count=442833 407141 369432 335824 300292 261713 157858 135592 112864 103855 90326 74501 35692 35532 38579 90639 33608 37709 22266 22225 22728 21701 20579 78532 60947 21885 46961 13554 15825 13831
is_linear=0
shrinkage=0.1


Tree=2
num_leaves=31
num_cat=0
split_feature=9 3 6 5 2 0 4 13 8 4 13 8 0 0 0 0 0 0 0 0 0 0 1 0 0 0 0 0 11 0
split_gain=20875.8 12216.9 14432.4 7094.22 6767.69 5251.76 2957.86 2289.83 2965.83 1199.7 1247.87 1138.4 1059.55 812.92 809.948 541.75 266.959 259.288 221.445 216.248 205.793 187.934 154.687 138.13 132.343 127.529 124.173 120.608 114.631 107.844
threshold=1.0000000180025095e-35 1.0000000180025095e-35 1.0000000180025095e-35 1.0000000180025095e-35 1.0000000180025095e-35 1.6450000000000002 1.0000000180025095e-35 1.0000000180025095e-35 1.0000000180025095e-35 1.0000000180025095e-35 1.0000000180025095e-35 1.0000000180025095e-35 1.4950000000000003 1.6450000000000002 2.1750000000000003 3.0750000000000006 2.5050000000000003 2.2950000000000004 3.6150000000000007 2.7350000000000008 2.9850000000000008 2.9050000000000007 0.0097811258667990907 2.4450000000000007 1.1050000000000002 3.6150000000000007 3.6150000000000007 1.4650000000000001 1.0000000180025095e-35 1.0450000000000002
decision_type=2 2 2 2 2 2 2 2 2 2 2 2 2 2 2 2 2 2 2 2 2 2 2 2 2 2 2 2 2 2
left_child=1 2 3 4 5 9 7 8 15 10 11 24 -2 -6 27 28 -4 -3 22 -8 -15 -9 -10 -14 -1 -17 -16 -5 -7 -11
right_child=12 17 16 14 13 6 19 21 18 29 -12 -13 23 20 26 25 -18 -19 -20 -21 -22 -23 -24 -25 -26 -27 -28 -29 -30 -31
leaf_value=-0.054262552397226452 -0.097223481616451779 0.053032703137021325 0.056898847078993078 0.016157150225390597 0.011287004561724896 -0.026596276546454151 0.018817260871860891 0.011409814347508065 0.011152038414957958 -0.017537271562888351 -0.012243315785596558 -0.016950589345500942 -0.070276030851117804 0.033487600260212289 0.048889603244994168 -0.018140332604887552 0.075641703362304732 0.069677292949952133 0.043372482593142359 0.038549074582692293 0.053129919326458136 0.029999300859469169 0.056245113971254417 -0.054627967820546533 -0.044872162011549296 -0.0042784589484387882 0.072626402304581367 0.033052071184595903 -0.036330943831971121 0.00098511633228034632
leaf_weight=26743 12211 20457 21998 11703 15772 47283 10609 13717 18697 4967 15825 13554 9421 14300 14621 15487 11610 17252 2735 11657 8507 9011 793 14060 34204 11614 2595 6613 16255 8562
leaf_count=26743 12211 20457 21998 11703 15772 47283 10609 13717 18697 4967 15825 13554 9421 14300 14621 15487 11610 17252 2735 11657 8507 9011 793 14060 34204 11614 2595 6613 16255 8562
internal_value=0 0.00642857 0.000894273 -0.00535843 -0.010358 -0.0161218 -0.00463185 -0.0101789 -0.0160105 -0.0335865 -0.037746 -0.0431632 -0.0733312 0.0287428 0.0368947 -0.0240376 0.0633736 0.0606477 0.016726 0.0291475 0.0408142 0.01878 0.0129868 -0.0609063 -0.0489926 -0.0121999 0.0524675 0.0222571 -0.0290867 -0.00581514
internal_weight=0 407141 369432 335824 300292 261713 157858 135592 112864 103855 90326 74501 35692 38579 35532 90639 33608 37709 22225 22266 22807 22728 19490 23481 60947 27101 17216 18316 63538 13529
internal_count=442833 407141 369432 335824 300292 261713 157858 135592 112864 103855 90326 74501 35692 38579 35532 90639 33608 37709 22225 22266 22807 22728 19490 23481 60947 27101 17216 18316 63538 13529
is_linear=0
shrinkage=0.1


Tree=3
num_leaves=31
num_cat=0
split_feature=9 3 6 5 2 0 4 13 8 4 13 8 0 0 0 0 0 0 0 0 0 1 0 0 0 0 1 1 0 0
split_gain=16909.4 9895.66 11690.2 5746.31 5481.83 4258.12 2391.69 1842.97 2394 983.318 1020.09 934.834 865.694 662.861 661.021 433.885 226.639 217.249 189.545 188.432 166.401 164.412 152.654 138.2 116.805 107.41 103.335 100.29 98.5669 97.462
threshold=1.0000000180025095e-35 1.0000000180025095e-35 1.0000000180025095e-35 1.0000000180025095e-35 1.0000000180025095e-35 1.6850000000000003 1.0000000180025095e-35 1.0000000180025095e-35 1.0000000180025095e-35 1.0000000180025095e-35 1.0000000180025095e-35 1.0000000180025095e-35 1.7550000000000001 2.1950000000000007 1.6850000000000003 3.0750000000000006 1.9650000000000001 2.8650000000000007 3.3650000000000007 2.4950000000000006 3.5350000000000006 1.0000000180025095e-35 2.7550000000000003 3.7950000000000004 1.2750000000000001 4.745000000000001 1.0000000180025095e-35 0.0097811258667990907 0.89500000000000013 1.0450000000000002
decision_type=2 2 2 2 2 2 2 2 2 2 2 2 2 2 2 2 2 2 2 2 2 2 2 2 2 2 2 2 2 2
left_child=1 2 3 4 5 9 7 8 15 10 11 24 -2 -6 -5 27 -4 -3 21 -10 -9 -8 -16 -15 -1 -17 -21 -7 -12 -13
right_child=12 17 16 14 13 6 18 20 19 -11 28 29 -14 23 22 25 -18 -19 -20 26 -22 -23 -24 -25 -26 -27 -28 -29 -30 -31
leaf_value=-0.047453723411844742 -0.084004439977987289 0.050543092721291955 0.048501301793126554 0.016120350070841252 0.012967166726392469 -0.026501482905517983 0.01937807620051453 0.013540705399882579 0.0036389269516383447 -0.0051311111217870499 -0.024537139067906631 -0.026434413684696397 -0.052528076172889432 0.035656663219626766 0.035413111746844542 -0.013162968780359916 0.064937424099953553 0.068844015755614996 0.047208737898373973 0.019831183014445013 0.03835695494058939 0.052820641536341917 0.052197349040967525 0.059811581195303234 -0.038520264536233924 0.0071750176950761569 0.05039600458449537 0.015097096989599941 -0.0063671890383260781 -0.0088438451688771704
leaf_weight=37608 15274 29385 16156 13831 19596 62331 16803 19446 8595 13717 3975 4896 20418 16209 10477 24192 17452 8324 3664 12241 3138 1611 11224 2774 23961 2909 1216 585 11994 8831
leaf_count=37608 15274 29385 16156 13831 19596 62331 16803 19446 8595 13717 3975 4896 20418 16209 10477 24192 17452 8324 3664 12241 3138 1611 11224 2774 23961 2909 1216 585 11994 8831
internal_value=0 0.00578572 0.000804846 -0.00482258 -0.00932221 -0.0145097 -0.00407024 -0.00907228 -0.0143241 -0.030095 -0.033847 -0.0387158 -0.065998 0.0258685 0.0332052 -0.0215581 0.0570363 0.0545829 0.026437 0.0152055 0.0169889 0.0223039 0.0440941 0.0391864 -0.0439771 -0.0109799 0.0225931 -0.0261147 -0.01089 -0.0151179
internal_weight=0 407141 369432 335824 300292 261713 156731 134653 112069 104982 91265 75296 35692 38579 35532 90017 33608 37709 22078 22052 22584 18414 21701 18983 61569 27101 13457 62916 15969 13727
internal_count=442833 407141 369432 335824 300292 261713 156731 134653 112069 104982 91265 75296 35692 38579 35532 90017 33608 37709 22078 22052 22584 18414 21701 18983 61569 27101 13457 62916 15969 13727
is_linear=0
shrinkage=0.1


Tree=4
num_leaves=31
num_cat=0
split_feature=9 3 6 5 2 0 4 13 8 4 13 8 0 0 0 0 0 0 0 0 0 1 0 1 1 0 0 0 0 0
split_gain=13696.6 8015.48 9469.1 4654.51 4440.28 3503.11 1797.31 1364.17 1797.81 969.798 944.768 928.228 723.36 554.758 538.721 317.868 190.746 187.992 167.511 142.199 142.177 132.323 126.455 119.327 116.231 115.094 114.311 112.754 107.984 104.588
threshold=1.0000000180025095e-35 1.0000000180025095e-35 1.0000000180025095e-35 1.0000000180025095e-35 1.0000000180025095e-35 1.9750000000000003 1.0000000180025095e-35 1.0000000180025095e-35 1.0000000180025095e-35 1.0000000180025095e-35 1.0000000180025095e-35 1.0000000180025095e-35 1.4850000000000001 1.6450000000000002 2.1750000000000003 3.5350000000000006 2.7550000000000003 2.1950000000000007 1.3450000000000004 3.5350000000000006 2.8650000000000007 1.0000000180025095e-35 3.6150000000000007 1.0000000180025095e-35 0.0097811258667990907 3.5350000000000006 1.135 3.6150000000000007 1.1050000000000002 1.2650000000000003
decision_type=2 2 2 2 2 2 2 2 2 2 2 2 2 2 2 2 2 2 2 2 2 2 2 2 2 2 2 2 2 2
left_child=1 2 3 4 5 9 7 8 15 10 11 18 -2 -6 23 24 -4 -3 -1 -10 -15 22 -8 -5 -7 -9 -11 -14 -13 -12
right_child=12 17 16 14 13 6 21 25 19 26 29 28 27 20 -16 -17 -18 -19 -20 -21 -22 -23 -24 -25 -26 -27 -28 -29 -30 -31
leaf_value=-0.042218003670369347 -0.079427953648720462 0.042335626104844891 0.046472014709584987 0.015744684389249062 0.0088615873704881477 -0.021300950286253943 0.019943244736062047 0.013679565044686133 0.012137260174646917 -0.0124499562174333 -0.015544954410817833 -0.021771015217311299 -0.051748591227947276 0.026812237294924442 0.042585183555592675 -0.0032893235712583169 0.063009368295634804 0.056467872614397258 -0.032389864776351272 0.036492068394246638 0.042931509143673913 0.05224414093185608 0.044218046131924628 0.047530307007221093 0.019147438826272914 0.034521260831939564 0.0044987121327096065 -0.030018846681943052 -0.0051004043886202352 -0.00045101228624908003
leaf_weight=41708 11979 19594 23730 17047 15772 67368 15265 17025 16705 6911 9549 6411 21019 13693 17216 12107 9878 18115 29685 2799 9114 1741 2497 1269 718 3138 9381 2694 9864 8841
leaf_count=41708 11979 19594 23730 17047 15772 67368 15265 17025 16705 6911 9549 6411 21019 13693 17216 12107 9878 18115 29685 2799 9114 1741 2497 1269 718 3138 9381 2694 9864 8841
internal_value=0 0.00520714 0.000724361 -0.00434033 -0.00838999 -0.0130587 -0.00221837 -0.00679928 -0.011597 -0.0254064 -0.0288958 -0.0332186 -0.0593982 0.0232816 0.0298847 -0.0182195 0.0513326 0.0491246 -0.0381315 0.0156324 0.0332537 0.0259346 0.0233558 0.0179469 -0.0208744 0.0169232 -0.00269084 -0.0492799 -0.0116672 -0.00828854
internal_weight=0 407141 369432 335824 300292 261713 139363 119860 99697 122350 106058 87668 35692 38579 35532 80193 33608 37709 71393 19504 22807 19503 17762 18316 68086 20163 16292 23713 16275 18390
internal_count=442833 407141 369432 335824 300292 261713 139363 119860 99697 122350 106058 87668 35692 38579 35532 80193 33608 37709 71393 19504 22807 19503 17762 18316 68086 20163 16292 23713 16275 18390
is_linear=0
shrinkage=0.1


Tree=5
num_leaves=31
num_cat=0
split_feature=9 3 6 5 2 0 4 13 8 4 13 8 0 0 0 0 0 0 0 0 1 11 1 1 1 0 0 1 0 0
split_gain=11094.3 6492.54 7669.97 3770.16 3596.63 2880.37 1348.53 1051.75 1367.91 939.902 792.699 890.788 587.16 457.457 452.956 226.742 161.502 158.272 157.904 120.395 118.327 118.239 111.554 110.785 109.681 105.412 102.135 100.351 97.4604 93.9973
threshold=1.0000000180025095e-35 1.0000000180025095e-35 1.0000000180025095e-35 1.0000000180025095e-35 1.0000000180025095e-35 2.1950000000000007 1.0000000180025095e-35 1.0000000180025095e-35 1.0000000180025095e-35 1.0000000180025095e-35 1.0000000180025095e-35 1.0000000180025095e-35 1.5550000000000004 1.6150000000000004 2.6150000000000007 3.5350000000000006 2.1150000000000007 2.6150000000000007 1.2750000000000001 3.3650000000000007 1.0000000180025095e-35 1.0000000180025095e-35 0.0097811258667990907 1.0000000180025095e-35 1.0000000180025095e-35 1.5650000000000002 0.92500000000000016 0.0097811258667990907 3.6150000000000007 1.3050000000000004
decision_type=2 2 2 2 2 2 2 2 2 2 2 2 2 2 2 2 2 2 2 2 2 2 2 2 2 2 2 2 2 2
left_child=1 2 3 4 5 9 7 8 15 10 11 18 -2 -5 25 21 -4 -3 -1 23 26 -7 29 -15 -10 -6 -11 28 -8 -13
right_child=12 17 16 13 14 6 27 -9 24 20 -12 22 -14 19 -16 -17 -18 -19 -20 -21 -22 -23 -24 -25 -26 -27 -28 -29 -30 -31
leaf_value=-0.038486551653138718 -0.070022208350642004 0.039477595326886522 0.039504513832608147 0.012490593655688277 0.0071203177062999171 -0.015373042808107393 0.019818460584967709 0.016332687928815481 0.013067283846098739 -0.018667723751325967 -0.0070860976350595531 -0.017769768027919675 -0.043526668454339806 0.030316021834732622 0.035328436886049815 -0.0029603912591693589 0.053377193516246993 0.05307716631298201 -0.029440083411331752 0.052795412184911218 0.028517814086722215 -0.025383203934581895 0.035153390357039703 0.058979205411855674 0.040533212251029911 0.020348926281875415 0.00071609375447493197 0.060417971846116969 0.040780561650207291 -0.0031932305704165369
leaf_weight=37608 13379 24581 17389 13604 14065 46427 14158 18921 15925 3398 19632 9067 22313 16949 13978 12107 16219 13128 39623 3514 1267 15821 548 1465 1600 10536 13589 753 2630 8639
leaf_count=37608 13379 24581 17389 13604 14065 46427 14158 18921 15925 3398 19632 9067 22313 16949 13978 12107 16219 13128 39623 3514 1267 15821 548 1465 1600 10536 13589 753 2630 8639
internal_value=0 0.00468643 0.000651925 -0.00390629 -0.00755099 -0.0117528 -0.00105839 -0.00513689 -0.00955816 -0.022044 -0.0253869 -0.0291496 -0.0534584 0.0268962 0.0209535 -0.0154819 0.0461994 0.0442121 -0.0338453 0.0358334 -0.000962521 -0.0179172 -0.00928239 0.0325964 0.0155749 0.0127858 -0.00316135 0.0247043 0.0231024 -0.0106577
internal_weight=0 407141 369432 335824 300292 261713 128342 110801 91880 133371 115117 95485 35692 35532 38579 74355 33608 37709 77231 21928 18254 62248 18254 18414 17525 24601 16987 17541 16788 17706
internal_count=442833 407141 369432 335824 300292 261713 128342 110801 91880 133371 115117 95485 35692 35532 38579 74355 33608 37709 77231 21928 18254 62248 18254 18414 17525 24601 16987 17541 16788 17706
is_linear=0
shrinkage=0.1


Tree=6
num_leaves=31
num_cat=0
split_feature=9 3 6 0 5 2 4 5 2 13 8 4 13 8 0 0 0 0 0 0 0 0 0 11 0 1 1 11 1 1
split_gain=8986.35 5258.96 6212.68 3068.19 1926.18 1782.27 1279.3 1076.59 1177.2 991.85 1276.24 510.779 532.133 489.775 485.827 260.161 135.097 134.221 133.564 123.297 115.266 111.295 105.177 81.6395 80.2659 79.0662 77.4792 76.4816 75.748 74.5964
threshold=1.0000000180025095e-35 1.0000000180025095e-35 1.0000000180025095e-35 1.6450000000000002 1.0000000180025095e-35 1.0000000180025095e-35 1.0000000180025095e-35 1.0000000180025095e-35 1.0000000180025095e-35 1.0000000180025095e-35 1.0000000180025095e-35 1.0000000180025095e-35 1.0000000180025095e-35 1.0000000180025095e-35 1.9450000000000001 3.0750000000000006 2.9650000000000003 2.8750000000000004 2.9850000000000008 2.5050000000000003 3.5350000000000006 3.1750000000000003 3.0350000000000006 1.0000000180025095e-35 1.3050000000000004 0.0097811258667990907 1.0000000180025095e-35 1.0000000180025095e-35 1.0000000180025095e-35 0.0097811258667990907
decision_type=2 2 2 2 2 2 2 2 2 2 2 2 2 2 2 2 2 2 2 2 2 2 2 2 2 2 2 2 2 2
left_child=1 2 3 7 5 6 9 8 11 10 15 12 13 28 24 27 -3 -4 -12 -8 -7 -11 26 -17 -2 -13 -6 -5 -1 -15
right_child=14 16 17 4 22 20 19 -9 -10 21 18 25 -14 29 -16 23 -18 -19 -20 -21 -22 -23 -24 -25 -26 -27 -28 -29 -30 -31
leaf_value=-0.032711741742577856 -0.066951109936638178 0.036651442429738661 0.037871470919375774 -0.017146855897652438 0.024756774948393168 0.024192746113266224 0.010174775256746788 0.011300901953790259 0.0071202241240074949 0.0083883881279052698 0.0048159448504369196 -0.0054129180625103763 -0.0082613654877213647 -0.012572855744615773 -0.037505836961181351 -0.0043840171588640127 0.051202445018637271 0.052350086749008588 0.020685585595631568 0.025363179475023021 0.045137912151050258 0.024446691716295987 0.041430907194944744 -0.01721255723673323 -0.052670334273613596 0.039773670949023177 0.051635234563092103 -0.025098357296570846 -0.0037365590012733985 0.030640027249792534
leaf_weight=60031 9359 29573 25001 47283 12743 19777 8911 13657 15772 16936 13483 13130 15825 13142 19541 20563 8136 8607 8742 13355 3030 5792 7961 6538 6792 399 1171 16255 916 412
leaf_count=60031 9359 29573 25001 47283 12743 19777 8911 13657 15772 16936 13483 13130 15825 13142 19541 20563 8136 8607 8742 13355 3030 5792 7961 6538 6792 399 1171 16255 916 412
internal_value=0 0.00421779 0.000586732 -0.00351566 0.00423821 0.000844853 -0.00293043 -0.0152985 -0.0183352 -0.00657845 -0.0104165 -0.022201 -0.0249152 -0.0284526 -0.0481126 -0.0156821 0.0397909 0.0415794 0.0110581 0.0192847 0.0269754 0.0124807 0.0322639 -0.00747885 -0.0609456 -0.00408027 0.0270189 -0.0191811 -0.0322763 -0.0112593
internal_weight=0 407141 369432 335824 202540 180665 157858 133284 119627 135592 112864 103855 90326 74501 35692 90639 37709 33608 22225 22266 22807 22728 21875 27101 16151 13529 13914 63538 60947 13554
internal_count=442833 407141 369432 335824 202540 180665 157858 133284 119627 135592 112864 103855 90326 74501 35692 90639 37709 33608 22225 22266 22807 22728 21875 27101 16151 13529 13914 63538 60947 13554
is_linear=0
shrinkage=0.1


Tree=7
num_leaves=31
num_cat=0
split_feature=9 3 6 0 5 2 11 5 2 4 4 13 8 13 8 0 0 0 0 0 0 1 0 1 0 0 1 0 0 1
split_gain=7278.94 4259.76 5032.27 2546.52 1294.72 1305.88 1262.29 896.415 814.544 656.664 591.799 576.377 611.08 457.688 642.289 396.812 160.102 148.078 119.278 115.905 104.583 101.184 97.5286 91.8884 85.855 84.6235 78.2669 76.2271 71.4074 70.2487
threshold=1.0000000180025095e-35 1.0000000180025095e-35 1.0000000180025095e-35 2.3250000000000006 1.0000000180025095e-35 1.0000000180025095e-35 1.0000000180025095e-35 1.0000000180025095e-35 1.0000000180025095e-35 1.0000000180025095e-35 1.0000000180025095e-35 1.0000000180025095e-35 1.0000000180025095e-35 1.0000000180025095e-35 1.0000000180025095e-35 2.1750000000000003 3.6150000000000007 1.3450000000000004 1.7950000000000002 1.9750000000000003 1.135 0.0097811258667990907 1.1050000000000002 1.0000000180025095e-35 3.6150000000000007 1.3050000000000004 1.0000000180025095e-35 0.92500000000000016 4.4050000000000011 0.0097811258667990907
decision_type=2 2 2 2 2 2 2 2 2 2 2 2 2 2 2 2 2 2 2 2 2 2 2 2 2 2 2 2 2 2
left_child=1 2 3 4 5 9 7 8 10 11 13 12 17 14 16 25 -5 -1 -4 -3 -11 -6 -13 27 29 -2 -12 -14 -10 -16
right_child=15 19 18 6 21 -7 -8 -9 28 20 26 22 23 -15 24 -17 -18 -19 -20 -21 -22 -23 -24 -25 -26 -27 -28 -29 -30 -31
leaf_value=-0.030999970112032423 -0.060256000242164875 0.030115275145655845 0.030954130131558358 -0.011960305985538594 0.012118011284318679 0.0090874154397188999 -0.019146963178818283 0.031845368890283041 0.024321298918192638 -0.010016359117099319 0.018438696511423807 -0.014981910952864842 -0.022561522152926356 0.014535364118757553 0.0085595683476325443 -0.032530926941751262 0.0029927435613798406 -0.022598849648969035 0.042909206391220131 0.041207481583546333 0.0053371996796262935 0.053600585715971039 -0.00051542624873172785 0.017877049268443478 0.02949717710615294 -0.046622708901097404 0.04249797366248647 -0.0058223010703164499 0.043050048808349277 0.043300761111166292
leaf_weight=41708 9359 18343 15427 41977 18788 21516 17051 16137 14700 6911 15007 6821 3345 17021 13145 17467 8633 42217 18181 19366 12391 607 14711 1375 2735 8866 1486 14570 2363 609
leaf_count=41708 9359 18343 15427 41977 18788 21516 17051 16137 14700 6911 15007 6821 3345 17021 13145 17467 8633 42217 18181 19366 12391 607 14711 1375 2735 8866 1486 14570 2363 609
internal_value=0 0.00379601 0.000528059 -0.0031641 -0.0110286 -0.0138922 0.00647783 0.00974304 0.00671214 -0.0173246 0.00328593 -0.0199804 -0.023085 -0.000110016 -0.00382511 -0.0433013 -0.00940963 -0.0267739 0.0374215 0.0358118 -0.000160078 0.0134163 -0.00509818 -0.00703568 0.0133156 -0.0536237 0.0206064 -0.00894777 0.026915 0.0100978
internal_weight=0 407141 369432 335824 184960 165565 150864 133813 117676 144049 100613 124747 103215 84120 67099 35692 50610 83925 33608 37709 19302 19395 21532 19290 16489 18225 16493 17915 17063 13754
internal_count=442833 407141 369432 335824 184960 165565 150864 133813 117676 144049 100613 124747 103215 84120 67099 35692 50610 83925 33608 37709 19302 19395 21532 19290 16489 18225 16493 17915 17063 13754
is_linear=0
shrinkage=0.1


Tree=8
num_leaves=31
num_cat=0
split_feature=9 3 6 0 5 2 4 5 2 13 8 11 0 7 0 0 1 12 14 0 0 0 1 0 0 0 0 1 1 0
split_gain=5895.94 3450.4 4076.14 2070.31 1276.05 1181.52 840.407 694.367 760.862 649.91 842.28 347.122 323.829 290.816 184.105 181.29 153.861 117.771 201.793 103.424 99.6489 98.3482 98.0799 87.5715 84.5485 84.2815 83.1518 80.5347 79.1179 77.0933
threshold=1.0000000180025095e-35 1.0000000180025095e-35 1.0000000180025095e-35 1.6450000000000002 1.0000000180025095e-35 1.0000000180025095e-35 1.0000000180025095e-35 1.0000000180025095e-35 1.0000000180025095e-35 1.0000000180025095e-35 1.0000000180025095e-35 1.0000000180025095e-35 1.4850000000000001 1.0000000180025095e-35 0.99500000000000011 3.0450000000000004 1.0000000180025095e-35 1.0000000180025095e-35 1.0000000180025095e-35 3.2250000000000005 3.2050000000000005 3.0050000000000003 1.0000000180025095e-35 2.6650000000000005 3.6150000000000007 3.5350000000000006 3.6150000000000007 0.0097811258667990907 1.0000000180025095e-35 3.0750000000000006
decision_type=2 2 2 2 2 2 2 2 2 2 2 2 2 2 2 2 2 2 2 2 2 2 2 2 2 2 2 2 2 2
left_child=1 2 3 7 5 6 9 8 11 10 15 13 -2 14 -1 -5 17 18 -16 -3 27 -4 25 -11 -6 -12 -14 -8 -15 -7
right_child=12 19 21 4 24 29 20 -9 -10 23 22 -13 26 28 16 -17 -18 -19 -20 -21 -22 -23 -24 -25 -26 -27 -28 -29 -30 -31
leaf_value=-0.020501385320384213 -0.052372752189958419 0.030331402007238439 0.030891206338771578 -0.015855476737477673 0.024051637369366483 0.018376535484446999 0.010451514723628486 0.0088353859020516828 0.0054994601293271179 0.0032869144160860286 0.004571436488738095 -0.0317639537483431 -0.03432116485634161 -0.031071038395595465 -0.0037816825273832202 -0.0064051228209336666 0.022705243002376019 -0.020072400076215517 -0.019941534584819731 0.046671555464789391 0.027448269891204791 0.0441749909565778 0.030542974809814674 0.015765408984066358 0.043278338835648265 0.024031067020634889 -0.015660618122808122 0.045290163945342077 -0.00064535898473683153 0.031273992360617037
leaf_weight=23460 11979 33326 26554 59947 19280 16337 16128 13657 15772 10215 17739 15717 21019 12763 28363 30692 1416 10599 10621 4383 5446 7054 1941 12513 2595 2545 2694 692 916 6470
leaf_count=23460 11979 33326 26554 59947 19280 16337 16128 13657 15772 10215 17739 15717 21019 12763 28363 30692 1416 10599 10621 4383 5446 7054 1941 12513 2595 2545 2694 692 916 6470
internal_value=0 0.00341641 0.000475253 -0.00284769 0.00352167 0.000759727 -0.00231413 -0.0125266 -0.0149654 -0.00527089 -0.00837768 -0.0180733 -0.0389712 -0.015632 -0.0131699 -0.0126554 -0.00979736 -0.0107256 -0.00818436 0.0322307 0.0156915 0.0336793 0.00906797 0.010157 0.0263325 0.007013 -0.0322012 0.0118848 -0.0290336 0.0220353
internal_weight=0 407141 369432 335824 202540 180665 157858 133284 119627 135592 112864 103855 35692 88138 74459 90639 50999 49583 38984 37709 22266 33608 22225 22728 21875 20284 23713 16820 13679 22807
internal_count=442833 407141 369432 335824 202540 180665 157858 133284 119627 135592 112864 103855 35692 88138 74459 90639 50999 49583 38984 37709 22266 33608 22225 22728 21875 20284 23713 16820 13679 22807
is_linear=0
shrinkage=0.1


Tree=9
num_leaves=31
num_cat=0
split_feature=9 3 6 0 11 5 2 5 2 4 13 8 4 13 8 0 0 0 0 0 1 1 1 0 1 1 0 0 1 0
split_gain=4775.71 2794.83 3301.67 1719.1 882.475 846.484 857.855 585.137 527.386 445.813 394.98 392.315 383.997 291.488 416.712 273.432 118.029 114.926 87.752 87.6484 82.9639 81.6753 69.2535 65.9346 63.9315 61.3818 59.6983 58.8875 58.657 57.4426
threshold=1.0000000180025095e-35 1.0000000180025095e-35 1.0000000180025095e-35 2.3250000000000006 1.0000000180025095e-35 1.0000000180025095e-35 1.0000000180025095e-35 1.0000000180025095e-35 1.0000000180025095e-35 1.0000000180025095e-35 1.0000000180025095e-35 1.0000000180025095e-35 1.0000000180025095e-35 1.0000000180025095e-35 1.0000000180025095e-35 2.1750000000000003 3.6150000000000007 1.0350000000000004 1.8250000000000004 1.7750000000000001 1.0000000180025095e-35 0.0097811258667990907 0.0097811258667990907 0.71500000000000008 0.0097811258667990907 0.0097811258667990907 3.6150000000000007 1.155 0.0097811258667990907 3.9650000000000003
decision_type=2 2 2 2 2 2 2 2 2 2 2 2 2 2 2 2 2 2 2 2 2 2 2 2 2 2 2 2 2 2
left_child=1 2 3 5 7 6 9 8 12 10 11 17 13 14 16 27 22 -1 -3 -4 -7 -11 -5 -12 -13 -16 -14 -2 -19 -15
right_child=15 18 19 4 -6 20 -8 -9 -10 21 23 24 26 29 25 -17 -18 28 -20 -21 -22 -23 -24 -25 -26 -27 -28 -29 -30 -31
leaf_value=-0.028073614569149169 -0.050638924034707412 0.023679311428976599 0.024731794104135691 -0.010000565996469805 -0.016066389894359278 0.0089328794921902897 0.0072849560478717955 0.025946482816123429 0.021896782286949523 -0.0011443654984029002 -0.016946543387570775 -0.0070487644976837743 0.014168513216516377 0.009242632335166005 0.0096832214197117104 -0.026133526116637568 0.0033339815360992255 -0.019925138259259567 0.033375011962974065 0.034985500891723087 0.034399377094742695 0.036337984585668892 0.023777959584077073 -0.0016270598457724201 0.026220955960015026 0.039481210859072496 0.030406748023518077 -0.03902431709875466 0.013579568551036848 0.024850110162729255
leaf_weight=21849 7247 16986 15320 41361 17051 18018 21516 16137 17063 18702 3322 18694 13784 14193 15766 17467 8633 61549 20723 18288 1377 600 616 18210 596 723 2709 10978 527 2828
leaf_count=21849 7247 16986 15320 41361 17051 18018 21516 16137 17063 18702 3322 18694 13784 14193 15766 17467 8633 61549 20723 18288 1377 600 616 18210 596 723 2709 10978 527 2828
internal_value=0 0.00307477 0.000427728 -0.00256292 0.00535919 -0.00902465 -0.0113401 0.00808933 0.00564056 -0.014122 -0.0163103 -0.0188804 0.00288366 0.000148163 -0.00281663 -0.0350741 -0.00731484 -0.0218361 0.0290076 0.0303114 0.0107409 2.07682e-05 -0.00950488 -0.00399058 -0.00602084 0.0109898 0.0168357 -0.0436428 -0.0196407 0.0118358
internal_weight=0 407141 369432 335824 150864 184960 165565 133813 117676 144049 124747 103215 100613 84120 67099 35692 50610 83925 37709 33608 19395 19302 41977 21532 19290 16489 16493 18225 62076 17021
internal_count=442833 407141 369432 335824 150864 184960 165565 133813 117676 144049 124747 103215 100613 84120 67099 35692 50610 83925 37709 33608 19395 19302 41977 21532 19290 16489 16493 18225 62076 17021
is_linear=0
shrinkage=0.1


Tree=10
num_leaves=31
num_cat=0
split_feature=9 3 6 0 11 5 2 11 4 7 13 8 5 2 0 0 0 1 12 14 0 1 1 0 0 1 1 0 0 0
split_gain=3868.33 2263.81 2674.35 1417.01 882.668 652.498 594.963 455.288 404.859 384.392 294.972 421.575 265.178 288.636 221.48 130.932 128.442 110.683 82.7177 144.105 80.4958 79.8903 77.8629 76.9942 75.1356 73.3336 67.7498 69.55 64.7343 63.7885
threshold=1.0000000180025095e-35 1.0000000180025095e-35 1.0000000180025095e-35 1.6450000000000002 1.0000000180025095e-35 1.0000000180025095e-35 1.0000000180025095e-35 1.0000000180025095e-35 1.0000000180025095e-35 1.0000000180025095e-35 1.0000000180025095e-35 1.0000000180025095e-35 1.0000000180025095e-35 1.0000000180025095e-35 2.1750000000000003 0.80500000000000016 3.5350000000000006 1.0000000180025095e-35 1.0000000180025095e-35 1.0000000180025095e-35 3.5350000000000006 1.0000000180025095e-35 1.0000000180025095e-35 3.3750000000000004 3.2050000000000005 1.0000000180025095e-35 1.0000000180025095e-35 3.6150000000000007 3.5350000000000006 3.0050000000000003
decision_type=2 2 2 2 2 2 2 2 2 2 2 2 2 2 2 2 2 2 2 2 2 2 2 2 2 2 2 2 2 2
left_child=1 2 3 7 5 6 8 9 10 12 11 16 13 15 -2 -1 22 18 19 -17 -3 29 -5 -13 25 -4 27 -7 -12 -10
right_child=14 20 24 4 -6 26 -8 -9 21 -11 28 23 -14 -15 -16 17 -18 -19 -20 -21 -22 -23 -24 -25 -26 -27 -28 -29 -30 -31
leaf_value=-0.017988779239682021 -0.039278480602292901 0.024923587601509346 0.024376841219846439 -0.010695587506170029 -0.01557563300623916 0.017729083139718757 0.018010137876872608 -0.026299113697592393 0.0066155704933880417 -0.023935137940847815 0.0061598049988292707 0.0048966698552223957 0.0068840215864238129 0.0042210184790207259 -0.023520173462717321 -0.0033392005015318187 0.0027648698952347818 0.018734303358387761 -0.016386440323533379 -0.016297834194340093 0.044147578998276621 0.032348004904751843 0.0110465180737934 0.020806371415436481 0.039889755716307741 0.047523790484008233 0.041119072695609764 0.035593817429842009 0.021630292069306389 0.018134197474007793
leaf_weight=18406 18225 35388 28026 57161 22793 17762 22807 15717 12548 13679 19590 18588 13657 15772 17467 30819 8989 1478 11863 11893 2321 1924 1696 3637 4143 1439 1629 2484 3138 7794
leaf_count=18406 18225 35388 28026 57161 22793 17762 22807 15717 12548 13679 19590 18588 13657 15772 17467 30819 8989 1478 11863 11893 2321 1924 1696 3637 4143 1439 1629 2484 3138 7794
internal_value=0 0.00276729 0.000384955 -0.00230663 0.00296281 0.0053136 0.00307085 -0.0103141 0.00054821 -0.00817717 -0.00188427 -0.00445304 -0.00610231 -0.00806787 -0.0315667 -0.0106709 -0.00836869 -0.00826796 -0.00899924 -0.00694748 0.0261068 0.0128711 -0.0100691 0.00750021 0.0272803 0.0255073 0.0214995 0.0199209 0.00829578 0.0110289
internal_weight=0 407141 369432 335824 202540 179747 157872 133284 135065 117567 112799 90071 103888 90231 35692 74459 67846 56053 54575 42712 37709 22266 58857 22225 33608 29465 21875 20246 22728 20342
internal_count=442833 407141 369432 335824 202540 179747 157872 133284 135065 117567 112799 90071 103888 90231 35692 74459 67846 56053 54575 42712 37709 22266 58857 22225 33608 29465 21875 20246 22728 20342
is_linear=0
shrinkage=0.1


Tree=11
num_leaves=31
num_cat=0
split_feature=9 3 6 0 5 2 11 4 5 2 13 8 4 0 13 8 0 1 0 1 0 1 0 0 0 1 0 0 0 0
split_gain=3133.35 1833.69 2166.23 1193.34 630.211 588.917 551.737 354.517 347.379 306.903 281.32 293.984 233.046 188.44 170.391 265.695 97.8087 83.2685 70.5464 67.916 67.4352 66.7228 65.4279 61.317 59.0906 53.9804 51.3984 48.8447 47.7251 43.7568
threshold=1.0000000180025095e-35 1.0000000180025095e-35 1.0000000180025095e-35 2.4850000000000008 1.0000000180025095e-35 1.0000000180025095e-35 1.0000000180025095e-35 1.0000000180025095e-35 1.0000000180025095e-35 1.0000000180025095e-35 1.0000000180025095e-35 1.0000000180025095e-35 1.0000000180025095e-35 1.4650000000000001 1.0000000180025095e-35 1.0000000180025095e-35 1.0350000000000004 0.0097811258667990907 3.0550000000000002 1.0000000180025095e-35 1.6850000000000003 1.0000000180025095e-35 4.6750000000000007 3.6150000000000007 1.3050000000000004 1.0000000180025095e-35 1.2650000000000003 4.7250000000000005 1.0650000000000002 1.3450000000000004
decision_type=2 2 2 2 2 2 2 2 2 2 2 2 2 2 2 2 2 2 2 2 2 2 2 2 2 2 2 2 2 2
left_child=1 2 3 4 5 7 8 10 9 12 11 16 14 -2 15 21 -1 -6 -3 28 -4 22 -5 -15 -13 -18 -12 -11 -9 -7
right_child=13 18 20 6 17 29 -8 19 -10 27 26 24 -14 23 -16 -17 25 -19 -20 -21 -22 -23 -24 -25 -26 -27 -28 -29 -30 -31
leaf_value=-0.023146532378547142 -0.03883286290752197 0.02158714407376662 0.019152470050284462 -0.0067715889891460787 0.0079603985957619541 0.0013630093122625343 -0.012495527200124715 -0.0090112915580120995 0.023009809349089763 0.017537555523031462 -0.008445544667667405 -0.010589395453387549 0.015521819722222616 -0.025140417678371198 0.010703377288222108 0.010998367614338145 -0.015884412470532447 0.042256911219062054 0.033296087453300566 0.020334651650516098 0.028268182427978478 0.01777164893168166 0.0083371870806380442 -0.0091291870004010026 -0.00012644688203145132 0.003928291517577359 0.0010842216463984749 0.042088559537050478 0.0020710999993086192 0.010043794208656613
leaf_weight=21849 11673 31561 13700 39571 21515 10674 15158 5203 13285 14312 9549 9254 13590 21325 15109 13572 69266 732 6148 1653 19908 1249 3090 2694 12953 1403 13895 859 15349 12734
leaf_count=21849 11673 31561 13700 39571 21515 10674 15158 5203 13285 14312 9549 9254 13590 21325 15109 13572 69266 732 6148 1653 19908 1249 3090 2694 12953 1403 13895 859 15349 12734
internal_value=0 0.00249056 0.00034646 -0.00207596 -0.00680738 -0.00873163 0.0054344 -0.0108943 0.00780521 0.00581222 -0.0127791 -0.0148189 0.00350343 -0.02841 0.00125342 -0.00123047 -0.017299 0.00908887 0.0234961 0.0008339 0.0245522 -0.00501024 -0.00567724 -0.0233446 -0.00448652 -0.0154911 -0.00279736 0.0189277 -0.000734548 0.00608537
internal_weight=0 407141 369432 335824 206029 183782 129795 160374 114637 101352 138169 114725 86181 35692 72591 57482 92518 22247 37709 22205 33608 43910 42661 24019 22207 70669 23444 15171 20552 23408
internal_count=442833 407141 369432 335824 206029 183782 129795 160374 114637 101352 138169 114725 86181 35692 72591 57482 92518 22247 37709 22205 33608 43910 42661 24019 22207 70669 23444 15171 20552 23408
is_linear=0
shrinkage=0.1


Tree=12
num_leaves=31
num_cat=0
split_feature=9 3 6 0 11 5 2 11 0 5 2 4 0 13 8 1 7 7 12 14 1 0 0 0 0 0 1 0 0 1
split_gain=2538.01 1485.29 1754.64 980.453 599.332 442.166 476.857 297.884 260.813 198.027 177.384 163.004 153.669 152.861 155.089 142.698 113.583 94.7105 86.7035 141.829 82.4282 73.1437 62.7123 62.6295 60.4082 58.0504 58.8191 52.5402 49.4443 45.8517
threshold=1.0000000180025095e-35 1.0000000180025095e-35 1.0000000180025095e-35 2.8650000000000007 1.0000000180025095e-35 1.0000000180025095e-35 1.0000000180025095e-35 1.0000000180025095e-35 1.405 1.0000000180025095e-35 1.0000000180025095e-35 1.0000000180025095e-35 1.7550000000000001 1.0000000180025095e-35 1.0000000180025095e-35 1.0000000180025095e-35 1.0000000180025095e-35 1.0000000180025095e-35 1.0000000180025095e-35 1.0000000180025095e-35 1.0000000180025095e-35 0.71500000000000008 2.1750000000000003 3.6150000000000007 0.65500000000000014 2.7550000000000003 1.0000000180025095e-35 1.3450000000000004 1.4650000000000001 0.0097811258667990907
decision_type=2 2 2 2 2 2 2 2 2 2 2 2 2 2 2 2 2 2 2 2 2 2 2 2 2 2 2 2 2 2
left_child=1 2 3 4 5 6 8 9 17 10 15 13 -2 14 -10 16 18 24 19 23 28 -6 -3 -5 -1 26 -4 -8 -7 -13
right_child=12 22 25 7 21 20 27 -9 11 -11 -12 29 -14 -15 -16 -17 -18 -19 -20 -21 -22 -23 -24 -25 -26 -27 -28 -29 -30 -31
leaf_value=-0.015889661448295241 -0.033155423227277624 0.017186899341312744 0.018234664641969388 0.008983602892164249 -0.032401243977315496 0.0025708122924580595 0.001226708385517518 -0.0097279707630866137 -0.010303735970912878 0.022447728031083802 0.020343111325019342 0.0047372108159225122 -0.019893847435663737 0.002821183893793669 0.0012900987319888881 0.027844734237511323 -0.0057302553487694049 -0.020449118383459447 -0.0024059014628598752 -0.0024322369652373188 0.028836110605075502 -0.016690679442185379 0.025346568478753342 0.019460295374637653 -0.0082847987849235683 0.028538648364942888 0.040404963889453985 0.010012090878669768 0.011751530595934052 0.031659760602167457
leaf_weight=13865 15274 19410 22466 19967 3345 10986 10674 9187 50485 10002 9114 14240 20418 17698 14956 2688 9457 10641 9169 9039 1956 25978 18299 7989 42347 9878 1264 18791 12588 662
leaf_count=13865 15274 19410 22466 19967 3345 10986 10674 9187 50485 10002 9114 14240 20418 17698 14956 2688 9457 10641 9169 9039 1956 25978 18299 7989 42347 9878 1264 18791 12588 662
internal_value=0 0.0022415 0.000311814 -0.00186837 -0.00505375 -0.00326293 -0.00488816 0.00729706 -0.00698199 0.0093172 0.00736932 -0.00369788 -0.025569 -0.00542417 -0.00765406 0.00534145 0.00425394 -0.0117982 0.00629926 0.00845679 0.00910986 -0.0184829 0.0211465 0.0119775 -0.0101606 0.022097 0.0194156 0.0068295 0.00747311 0.00593321
internal_weight=0 407141 369432 335824 249212 219889 194359 86612 164894 77425 67423 98041 35692 83139 65441 58309 55621 66853 46164 36995 25530 29323 37709 27956 56212 33608 23730 29465 23574 14902
internal_count=442833 407141 369432 335824 249212 219889 194359 86612 164894 77425 67423 98041 35692 83139 65441 58309 55621 66853 46164 36995 25530 29323 37709 27956 56212 33608 23730 29465 23574 14902
is_linear=0
shrinkage=0.1


Tree=13
num_leaves=31
num_cat=0
split_feature=9 3 6 0 11 5 2 5 2 4 1 13 8 0 0 4 13 8 0 0 0 1 1 0 0 1 1 0 1 1
split_gain=2055.79 1203.08 1421.26 816.613 415.922 351.414 334.627 269.868 245.089 205.632 184.083 172.172 167.012 150.877 129.045 110.849 124.695 105.381 54.4424 52.3811 51.7979 49.9718 48.4058 46.1915 44.692 44.3758 42.4284 42.2635 41.8583 41.8061
threshold=1.0000000180025095e-35 1.0000000180025095e-35 1.0000000180025095e-35 2.1950000000000007 1.0000000180025095e-35 1.0000000180025095e-35 1.0000000180025095e-35 1.0000000180025095e-35 1.0000000180025095e-35 1.0000000180025095e-35 1.0000000180025095e-35 1.0000000180025095e-35 1.0000000180025095e-35 3.6150000000000007 1.4150000000000003 1.0000000180025095e-35 1.0000000180025095e-35 1.0000000180025095e-35 3.5350000000000006 3.3750000000000004 3.0050000000000003 1.0000000180025095e-35 1.0000000180025095e-35 0.90500000000000014 4.4050000000000011 0.0097811258667990907 1.0000000180025095e-35 3.7250000000000005 0.0097811258667990907 0.0097811258667990907
decision_type=2 2 2 2 2 2 2 2 2 2 2 2 2 2 2 2 2 2 2 2 2 2 2 2 2 2 2 2 2 2
left_child=1 2 3 5 7 6 9 8 10 11 13 12 21 15 -2 16 17 -5 -3 22 -16 23 -4 -1 -10 -7 27 -9 -11 -14
right_child=14 18 19 4 -6 25 -8 26 24 28 -12 -13 29 -15 20 -17 -18 -19 -20 -21 -22 -23 -24 -25 -26 -27 -28 -29 -30 -31
leaf_value=-0.020435728904338632 -0.032185096035101904 0.018058782630270068 0.017895660920951555 -0.0066717663622468358 -0.010589468918213572 0.0056926606410110103 0.0041195536689546414 0.013317167404328265 0.012248691431784366 -0.00085540633019722987 0.020928562834423826 -0.0029098061096445157 -0.0054318340941053554 0.0097107855147398562 -0.02234400276587745 0.0076106711478617327 0.0056060538856965506 0.0034080587435034561 0.033868557677629536 0.033852764453617595 -0.012732158077971005 0.0044469063102788343 0.036534700751630782 -0.014308734021687877 0.026946406492232722 0.034356808657064045 0.034375632594722191 0.027600506840676081 0.027256408098303875 0.022612695774933609
leaf_weight=15445 10727 35388 29659 45434 18939 17793 19596 13443 16620 17708 4795 19632 17706 16362 16463 13458 15914 13440 2321 2487 8502 1270 1462 60516 2363 557 1290 2449 546 548
leaf_count=15445 10727 35388 29659 45434 18939 17793 19596 13443 16620 17708 4795 19632 17706 16362 16463 13458 15914 13440 2321 2487 8502 1270 1462 60516 2363 557 1290 2449 546 548
internal_value=0 0.00201735 0.000280632 -0.00168153 0.0033507 -0.00651372 -0.00808238 0.00516437 0.00358923 -0.0098752 0.00176923 -0.0114388 -0.0131924 0.000891005 -0.0230121 -0.000744301 -0.00224777 -0.0043707 0.0190319 0.0198873 -0.0190706 -0.0152256 0.0187713 -0.0155545 0.0140783 0.00656274 0.0169341 0.0155183 -1.45468e-05 -0.00458991
internal_weight=0 407141 369432 335824 164507 171317 152967 145568 128386 133371 109403 115117 95485 104608 35692 88246 74788 58874 37709 33608 24965 77231 31121 75961 18983 18350 17182 15892 18254 18254
internal_count=442833 407141 369432 335824 164507 171317 152967 145568 128386 133371 109403 115117 95485 104608 35692 88246 74788 58874 37709 33608 24965 77231 31121 75961 18983 18350 17182 15892 18254 18254
is_linear=0
shrinkage=0.1


Tree=14
num_leaves=31
num_cat=0
split_feature=9 11 3 6 0 7 5 5 2 2 4 1 0 0 13 8 0 4 13 1 0 1 8 0 0 1 0 1 0 1
split_gain=1665.19 990.179 790.613 963.893 632.512 268.467 197.477 183.267 178.194 161.963 134.991 134.951 107.368 106.983 97.7126 147.788 71.8733 62.5034 67.8182 56.9022 49.285 48.9401 47.7898 46.5592 42.0171 41.1392 40.5155 34.1851 34.1476 32.9534
threshold=1.0000000180025095e-35 1.0000000180025095e-35 1.0000000180025095e-35 1.0000000180025095e-35 2.5050000000000003 1.0000000180025095e-35 1.0000000180025095e-35 1.0000000180025095e-35 1.0000000180025095e-35 1.0000000180025095e-35 1.0000000180025095e-35 1.0000000180025095e-35 2.4450000000000007 1.0350000000000004 1.0000000180025095e-35 1.0000000180025095e-35 1.3450000000000004 1.0000000180025095e-35 1.0000000180025095e-35 1.0000000180025095e-35 1.6450000000000002 0.0097811258667990907 1.0000000180025095e-35 1.6850000000000003 1.0550000000000004 0.0097811258667990907 4.7150000000000007 0.0097811258667990907 4.9650000000000007 0.0097811258667990907
decision_type=2 2 2 2 2 2 2 2 2 2 2 2 2 2 2 2 2 2 2 2 2 2 2 2 2 2 2 2 2 2
left_child=1 2 3 4 5 6 8 9 11 10 14 13 24 -1 15 25 -3 18 22 -7 -4 -8 -15 -5 -2 26 -6 -17 -11 -12
right_child=12 16 20 23 7 19 21 -9 -10 28 29 -13 -14 17 -16 27 -18 -19 -20 -21 -22 -23 -24 -25 -26 -27 -28 -29 -30 -31
leaf_value=-0.011349058891614116 -0.032946336863883909 -0.020441404994470572 0.012866447052292338 0.013411802741189072 -0.0049139825014577658 -0.015219419975179095 0.0056899888109491811 0.017074815139960415 0.0043577987888198675 0.013033423495164665 0.010977928206535127 0.014644206662441275 -0.013907764539106686 -0.0091893668468880241 0.008275195828160763 0.0072771321658487336 -0.010775702580661092 0.0015487385806787252 -4.2296695744455703e-05 0.0040988912931636352 0.020195112439012765 0.031841013649025481 -0.0026602963978251213 0.020986235030709326 -0.022646816227269891 0.022098059367205276 0.0070649938972657715 0.03203962805647384 0.035797371359861441 0.035889157183495245
leaf_weight=26190 5221 10624 15778 13700 39470 20853 21729 13063 23672 14216 12801 3341 14060 36111 14846 12748 27886 16185 17967 1645 21931 740 16258 19908 16411 610 3041 583 691 554
leaf_count=26190 5221 10624 15778 13700 39470 20853 21729 13063 23672 14216 12801 3341 14060 36111 14846 12748 27886 16185 17967 1645 21931 740 16258 19908 16411 610 3041 583 691 554
internal_value=0 0.00181562 0.00340957 0.00184626 3.17246e-05 -0.00357006 -0.00215009 0.0059383 -0.00354935 0.00447711 0.00278457 -0.00516223 -0.0207109 -0.00574934 0.00105629 -0.000842175 -0.0134422 -0.0040543 -0.00534361 -0.0138069 0.0171287 0.00655125 -0.00716241 0.0178986 -0.0251327 -0.00368708 -0.00405707 0.00836006 0.0140886 0.0120113
internal_weight=0 407141 368631 330922 297314 184691 162193 112623 139724 99560 84653 116052 35692 112711 71298 56452 38510 86521 70336 22498 37709 22469 52369 33608 21632 43121 42511 13331 14907 13355
internal_count=442833 407141 368631 330922 297314 184691 162193 112623 139724 99560 84653 116052 35692 112711 71298 56452 38510 86521 70336 22498 37709 22469 52369 33608 21632 43121 42511 13331 14907 13355
is_linear=0
shrinkage=0.1


Tree=15
num_leaves=31
num_cat=0
split_feature=9 11 3 6 0 5 2 4 7 0 0 13 8 1 12 14 0 0 0 1 0 0 1 0 0 1 1 13 8 0
split_gain=1348.8 802.045 640.396 780.753 532.994 256.419 220.328 165.242 139.392 119.699 88.8076 81.1931 108.455 81.0413 65.8214 93.5575 61.7759 44.0088 42.6824 42.251 41.4551 40.868 38.9989 38.4742 38.0309 37.5386 36.3683 41.5679 49.5453 36.301
threshold=1.0000000180025095e-35 1.0000000180025095e-35 1.0000000180025095e-35 1.0000000180025095e-35 1.5050000000000001 1.0000000180025095e-35 1.0000000180025095e-35 1.0000000180025095e-35 1.0000000180025095e-35 3.2250000000000005 1.3050000000000004 1.0000000180025095e-35 1.0000000180025095e-35 1.0000000180025095e-35 1.0000000180025095e-35 1.0000000180025095e-35 0.67500000000000016 3.5350000000000006 2.6650000000000005 0.0097811258667990907 3.5350000000000006 3.5350000000000006 1.0000000180025095e-35 1.1050000000000002 3.5350000000000006 1.0000000180025095e-35 0.0097811258667990907 1.0000000180025095e-35 1.0000000180025095e-35 4.7750000000000012
decision_type=2 2 2 2 2 2 2 2 2 2 2 2 2 2 2 2 2 2 2 2 2 2 2 2 2 2 2 2 2 2
left_child=1 2 3 4 8 6 7 9 13 11 -2 12 -6 14 15 23 -3 -12 -4 20 -9 22 -5 -1 -8 -7 27 28 -11 -18
right_child=10 16 18 21 5 25 24 19 -10 26 17 -13 -14 -15 -16 -17 29 -19 -20 -21 -22 -23 -24 -25 -26 -27 -28 -29 -30 -31
leaf_value=-0.0045000770863116149 -0.027006897056430102 -0.025297023063685611 0.013154160414001585 0.014539652887583895 -0.0063937442456085073 0.011853469716045234 0.0089892557711689098 0.0055137337536894787 -0.015709657298216492 -0.00051908181994340019 -0.017063468171150727 0.0029009017611472446 0.0024180175750521172 0.013615296418501545 -0.011321534699631083 -0.011305050734686236 -0.011354345246473458 -0.0037065678507684583 0.020420497266604738 0.028494817016088636 0.018727518859000661 0.031310747889358372 0.031189142651477104 0.00050251001042088482 0.020935643149388835 0.027056236384569988 0.032169787525850695 0.012302564291100739 0.011103237896231357 0.01094196342011719
leaf_weight=32025 9359 3247 25972 30453 58214 21336 22109 19839 12412 15205 23578 19824 18377 2427 13549 13448 34517 2755 11737 962 2697 1680 1475 29568 3030 1758 479 5221 4834 746
leaf_count=32025 9359 3247 25972 30453 58214 21336 22109 19839 12412 15205 23578 19824 18377 2427 13549 13448 34517 2755 11737 962 2697 1680 1475 29568 3030 1758 479 5221 4834 746
internal_value=0 0.00163406 0.00306861 0.00166163 2.85521e-05 0.003121 0.00178373 0.000291561 -0.00576846 -0.00118572 -0.0186398 -0.00280311 -0.00427948 -0.00441278 -0.00490668 -0.00374845 -0.012098 -0.015666 0.0154158 0.00797119 0.0070951 0.0161087 0.0153088 -0.00209856 0.0104292 0.0130108 0.00487282 0.00435519 0.00228457 -0.0108827
internal_weight=0 407141 368631 330922 297314 193885 170791 145652 103429 122154 35692 96415 76591 91017 88590 75041 38510 26333 37709 23498 22536 33608 31928 61593 25139 23094 25739 25260 20039 35263
internal_count=442833 407141 368631 330922 297314 193885 170791 145652 103429 122154 35692 96415 76591 91017 88590 75041 38510 26333 37709 23498 22536 33608 31928 61593 25139 23094 25739 25260 20039 35263
is_linear=0
shrinkage=0.1


Tree=16
num_leaves=31
num_cat=0
split_feature=9 11 3 6 0 7 1 0 5 2 12 14 1 0 0 4 13 8 0 1 0 0 2 5 8 1 0 0 0 1
split_gain=1092.53 649.657 518.721 632.41 445.162 188.953 144.756 120.918 111.978 103.768 88.2163 122.222 87.0506 76.0855 68.1855 58.1264 59.9839 63.5014 51.897 49.7045 38.9285 36.8545 35.2743 45.0958 32.3279 31.2967 30.8666 26.6503 26.149 25.093
threshold=1.0000000180025095e-35 1.0000000180025095e-35 1.0000000180025095e-35 1.0000000180025095e-35 2.6650000000000005 1.0000000180025095e-35 1.0000000180025095e-35 1.2250000000000003 1.0000000180025095e-35 1.0000000180025095e-35 1.0000000180025095e-35 1.0000000180025095e-35 1.0000000180025095e-35 2.5850000000000004 4.5750000000000011 1.0000000180025095e-35 1.0000000180025095e-35 1.0000000180025095e-35 1.3450000000000004 0.0097811258667990907 3.5350000000000006 2.4650000000000003 1.0000000180025095e-35 1.0000000180025095e-35 1.0000000180025095e-35 1.0000000180025095e-35 1.1050000000000002 0.57500000000000007 4.7750000000000012 0.0097811258667990907
decision_type=2 2 2 2 2 2 2 2 2 2 2 2 2 2 2 2 2 2 2 2 2 2 2 2 2 2 2 2 2 2
left_child=1 2 3 4 5 6 7 22 9 12 11 24 14 26 15 16 17 -6 -3 -7 -4 25 23 27 -9 -5 -2 -1 -20 -8
right_child=13 18 20 21 8 19 29 10 -10 -11 -12 -13 -14 -15 -16 -17 -18 -19 28 -21 -22 -23 -24 -25 -26 -27 -28 -29 -30 -31
leaf_value=-0.012811486324086361 -0.026031279321166084 -0.016835701442433206 0.013051389109601227 0.011118090177346872 -0.0040376511063220377 -0.011960240482153252 0.0084377110846685765 0.0036980745447506508 0.014590919338698452 0.01267232997481068 -0.0067118638230036741 -0.0065573985621986963 0.018791987151748155 -0.010569971891540004 0.011794944700505162 0.0080450185547349881 0.0063036738129531441 0.0050069880862571581 -0.0091300343748596594 0.013187247226575358 0.026420140226774049 0.018937198502266231 4.1250038990909507e-05 0.00021656525051242162 -0.0015565400070097798 0.027962448262636698 -0.017902622941249516 -0.0067773372714229636 0.0098477673381017691 0.022207238067371342
leaf_weight=9543 6524 10624 35388 20427 32739 22825 2943 63193 11945 12554 17436 17362 3271 12717 6590 10188 11273 10175 27140 814 2321 12015 8703 7573 14371 1166 16451 31411 746 2405
leaf_count=9543 6524 10624 35388 20427 32739 22825 2943 63193 11945 12554 17436 17362 3271 12717 6590 10188 11273 10175 27140 814 2321 12015 8703 7573 14371 1166 16451 31411 746 2405
internal_value=0 0.00147065 0.00276175 0.00149547 2.56969e-05 -0.00270278 -0.00156887 -0.00207969 0.0055133 0.00426394 -0.000174029 0.00102684 0.002842 -0.0167758 0.00210681 0.00111505 -0.000187891 -0.00189315 -0.0108882 -0.0110943 0.0138742 0.0144979 -0.00582114 -0.00687252 0.0027245 0.0120277 -0.0202108 -0.0081834 -0.00862234 0.0146299
internal_weight=0 407141 368631 330922 297314 198579 174940 169592 98735 86790 112362 94926 74236 35692 70965 64375 54187 42914 38510 23639 37709 33608 57230 48527 77564 21593 22975 40954 27886 5348
internal_count=442833 407141 368631 330922 297314 198579 174940 169592 98735 86790 112362 94926 74236 35692 70965 64375 54187 42914 38510 23639 37709 33608 57230 48527 77564 21593 22975 40954 27886 5348
is_linear=0
shrinkage=0.1


Tree=17
num_leaves=31
num_cat=0
split_feature=9 11 3 6 0 7 0 1 7 12 14 12 14 0 0 0 1 5 2 1 0 0 0 0 8 1 0 0 0 1
split_gain=884.949 526.222 420.164 512.252 368.016 166.222 133.938 95.9028 85.3683 78.1715 108.64 75.7014 102.804 67.4429 62.2656 45.1534 42.9424 41.7844 48.5991 34.6626 33.8722 32.5515 28.6346 28.4112 27.7897 27.5451 26.9235 24.9012 23.6701 23.4351
threshold=1.0000000180025095e-35 1.0000000180025095e-35 1.0000000180025095e-35 1.0000000180025095e-35 2.8750000000000004 1.0000000180025095e-35 1.3550000000000002 1.0000000180025095e-35 1.0000000180025095e-35 1.0000000180025095e-35 1.0000000180025095e-35 1.0000000180025095e-35 1.0000000180025095e-35 3.6150000000000007 2.1750000000000003 0.67500000000000016 0.0097811258667990907 1.0000000180025095e-35 1.0000000180025095e-35 0.0097811258667990907 1.8250000000000004 3.1550000000000007 1.7550000000000001 0.57500000000000007 1.0000000180025095e-35 1.0000000180025095e-35 4.9650000000000007 4.7250000000000005 4.7750000000000012 0.0097811258667990907
decision_type=2 2 2 2 2 2 2 2 2 2 2 2 2 2 2 2 2 2 2 2 2 2 2 2 2 2 2 2 2 2
left_child=1 2 3 4 5 6 17 9 11 10 24 12 13 19 -2 -3 22 18 23 -6 -4 25 -7 -1 -8 -5 -15 -16 -17 -10
right_child=14 15 20 21 8 16 7 -9 29 -11 -12 -13 -14 26 27 28 -18 -19 -20 -21 -22 -23 -24 -25 -26 -27 -28 -29 -30 -31
leaf_value=-0.011481005678562788 -0.019187205579245543 -0.021083750270483748 0.0091764198069448754 0.011046847374476386 0.0076067465595814655 -0.013172589005094909 0.0040659091484651216 0.015571657003855731 -0.0035339068872344372 -0.005541689035585641 -0.0053582803959697257 -0.0011700956955012242 -0.0011795548301940114 0.014153375166370569 -0.011563983668176086 -0.0091412210676171165 0.011818343243568655 0.0016433750450561434 0.0006636560512134548 0.028694279783143942 0.015200244358280929 0.020535500035054083 -0.0062337551924021989 -0.0054859319544645945 -0.00079663954097259563 0.025337709785767895 0.025168987172721348 0.0086393762632945518 0.0088629904291130639 0.019682185468110409
leaf_weight=9646 18225 3247 16986 27238 33604 14855 65031 4359 9793 18267 18309 9100 8977 11166 16834 34517 902 9973 11249 798 20723 4951 9918 43797 14346 1419 2769 633 746 455
leaf_count=9646 18225 3247 16986 27238 33604 14855 65031 4359 9793 18267 18309 9100 8977 11166 16834 34517 902 9973 11249 798 20723 4951 9918 43797 14346 1419 2769 633 746 455
internal_value=0 0.00132359 0.00248558 0.00134592 2.31272e-05 -0.00205065 -0.00105466 0.00101007 0.00599196 0.00046266 0.00158546 0.0073028 0.00864808 0.0104732 -0.0150982 -0.00979939 -0.00961422 -0.00438168 -0.00531051 0.0080959 0.0124868 0.0130481 -0.0103946 -0.00656799 0.00318709 0.0117545 0.0163423 -0.0108318 -0.00876034 -0.00250314
internal_weight=0 407141 368631 330922 297314 220652 194977 120312 76662 115953 97686 66414 57314 48337 35692 38510 25675 74665 64692 34402 37709 33608 24773 53443 79377 28657 13935 17467 35263 10248
internal_count=442833 407141 368631 330922 297314 220652 194977 120312 76662 115953 97686 66414 57314 48337 35692 38510 25675 74665 64692 34402 37709 33608 24773 53443 79377 28657 13935 17467 35263 10248
is_linear=0
shrinkage=0.1


Tree=18
num_leaves=31
num_cat=0
split_feature=9 11 3 6 0 5 2 1 0 7 4 0 13 8 1 2 5 0 0 0 0 0 1 0 1 0 0 4 0 0
split_gain=716.809 426.24 340.333 414.924 298.744 154.175 129.556 102.164 92.7031 78.2672 58.2574 52.9926 49.2193 53.1493 47.5664 41.1358 48.1253 39.2017 30.3003 29.8671 27.0811 26.0148 27.6977 25.2303 25.1445 24.2915 18.759 18.1426 18.6532 16.809
threshold=1.0000000180025095e-35 1.0000000180025095e-35 1.0000000180025095e-35 1.0000000180025095e-35 1.5050000000000001 1.0000000180025095e-35 1.0000000180025095e-35 0.0097811258667990907 3.6150000000000007 1.0000000180025095e-35 1.0000000180025095e-35 2.7250000000000005 1.0000000180025095e-35 1.0000000180025095e-35 1.0000000180025095e-35 1.0000000180025095e-35 1.0000000180025095e-35 1.5650000000000002 3.2250000000000005 1.635 0.69500000000000006 3.6150000000000007 0.0097811258667990907 1.0550000000000004 1.0000000180025095e-35 4.745000000000001 3.6150000000000007 1.0000000180025095e-35 6.2650000000000006 4.7250000000000005
decision_type=2 2 2 2 2 2 2 2 2 2 2 2 2 2 2 2 2 2 2 2 2 2 2 2 2 2 2 2 2 2
left_child=1 2 3 4 9 6 7 8 10 14 12 23 13 -6 15 16 20 -3 -4 -5 -1 22 -7 -2 -11 -8 -21 28 -10 -13
right_child=11 17 18 19 5 21 25 -9 27 24 -12 29 -14 -15 -16 -17 -18 -19 -20 26 -22 -23 -24 -25 -26 -27 -28 -29 -30 -31
leaf_value=-0.0094696648758397194 -0.0224291647297345 -0.013032975323182108 0.010210129232995644 0.0081027560467363032 -0.0045885916650523287 0.0081291010793950666 0.0073898857729414128 0.018639143770719551 0.0044626569265913572 -0.012942675173522405 0.0038096691441778735 -0.0089793155907777322 0.0021202450645257543 0.001331817348083587 0.010508304152542364 0.001413699818436899 0.0013207547082922447 -0.0064035148645850797 0.019054535313541492 0.01328132278935581 -0.0045520984663717191 0.019437832595522092 0.028640010975104338 -0.014569676770680105 0.0054833890515816426 0.025865568663470076 0.024509827326637854 0.014388057914785616 0.020343484899111208 0.0077754392519616793
leaf_weight=14516 5221 14034 33326 13490 64160 19818 24406 2930 13349 11621 19906 11075 22038 19856 2427 13440 11631 24476 4383 18500 49003 2595 681 18763 791 733 1618 2630 783 633
leaf_count=14516 5221 14034 33326 13490 64160 19818 24406 2930 13349 11621 19906 11075 22038 19856 2427 13440 11631 24476 4383 18500 49003 2595 681 18763 791 733 1618 2630 783 633
internal_value=0 0.00119123 0.00223702 0.00121133 2.08145e-05 0.00233603 0.00129909 0.000154862 -0.000224609 -0.00431922 -0.00115432 -0.0135884 -0.00208605 -0.00318939 -0.00330337 -0.00368175 -0.00459303 -0.00881945 0.0112381 0.0117433 -0.00567591 0.0100047 0.0088105 -0.0162806 -0.0117684 0.0079286 0.0141844 0.00676182 0.00534255 -0.00807346
internal_weight=0 407141 368631 330922 297314 193885 170791 145652 142722 103429 125960 35692 106054 84016 91017 88590 75150 38510 37709 33608 63519 23094 20499 23984 12412 25139 20118 16762 14132 11708
internal_count=442833 407141 368631 330922 297314 193885 170791 145652 142722 103429 125960 35692 106054 84016 91017 88590 75150 38510 37709 33608 63519 23094 20499 23984 12412 25139 20118 16762 14132 11708
is_linear=0
shrinkage=0.1


Tree=19
num_leaves=31
num_cat=0
split_feature=9 11 0 6 3 5 7 12 14 2 0 1 7 0 0 0 4 1 3 6 13 1 0 8 1 0 1 0 0 0
split_gain=580.615 345.254 289.309 195.829 235.453 109.303 99.3572 117.08 151.317 95.8625 75.7052 70.9961 55.0084 44.4996 43.9305 33.6671 32.7678 27.9304 28.6436 38.2681 25.4293 23.8396 23.598 22.1383 21.1087 18.981 16.3601 15.9858 15.8837 14.3872
threshold=1.0000000180025095e-35 1.0000000180025095e-35 2.6150000000000007 1.0000000180025095e-35 1.0000000180025095e-35 1.0000000180025095e-35 1.0000000180025095e-35 1.0000000180025095e-35 1.0000000180025095e-35 1.0000000180025095e-35 3.6150000000000007 0.0097811258667990907 1.0000000180025095e-35 1.4650000000000001 0.80500000000000016 0.71500000000000008 1.0000000180025095e-35 1.0000000180025095e-35 1.0000000180025095e-35 1.0000000180025095e-35 1.0000000180025095e-35 0.0097811258667990907 3.6150000000000007 1.0000000180025095e-35 1.0000000180025095e-35 2.6150000000000007 0.0097811258667990907 1.2950000000000002 1.7550000000000001 4.9650000000000007
decision_type=2 2 2 2 2 2 2 2 2 2 2 2 2 2 2 2 2 2 2 2 2 2 2 2 2 2 2 2 2 2
left_child=1 2 3 4 5 9 7 8 10 11 17 12 14 -2 -1 -3 20 18 19 -4 23 27 -15 -16 -5 -17 -8 -7 -14 -12
right_child=13 15 6 24 -6 21 26 -9 -10 -11 29 -13 28 22 16 25 -18 -19 -20 -21 -22 -23 -24 -25 -26 -27 -28 -29 -30 -31
leaf_value=-0.0079837034262986283 -0.017294562932231208 -0.017524298315141098 0.0055576134753081222 0.0080561980840801947 0.0082292989968919678 0.00044850006932876881 -0.0033795968992908162 -0.0018830928945668562 -0.0018225616422569146 0.0027117084705195853 0.013945144333186341 0.013201318465491205 -0.010772563910379175 -0.010882109188198485 -0.0058586982247956663 -0.0089159223162855652 0.0010774132585648721 0.017809061235878287 0.01223726608087179 0.012638847809532207 -0.0005031651389849869 0.021519294876944595 -0.00094929930049464188 -0.0017471282852628757 0.021599472964207004 -0.0041701735307387256 0.013970654884390928 0.0058808658514343335 -0.0051516372328956877 0.021522501101216229
leaf_weight=18267 11673 3345 49016 21476 24581 9137 12112 13950 13920 24601 14716 2348 14855 21325 41488 21158 19080 2757 10945 9039 20724 774 2694 19136 1216 14007 569 13305 7599 3020
leaf_count=18267 11673 3345 49016 21476 24581 9137 12112 13950 13920 24601 14716 2348 14855 21325 41488 21158 19080 2757 10945 9039 20724 774 2694 19136 1216 14007 569 13305 7599 3020
internal_value=0 0.0010721 0.00201332 -5.49519e-05 -0.000983768 -0.00216751 0.0058079 0.00671648 0.00787653 -0.0030558 0.00938516 -0.00404458 -0.00433146 -0.0122296 -0.00347283 -0.00793751 -0.00265234 0.00793917 0.0075448 0.00666014 -0.00352715 0.00426425 -0.00976803 -0.00456088 0.00878194 -0.00702559 -0.00260109 0.00366914 -0.0088703 0.0152354
internal_weight=0 407141 368631 238587 215895 191314 130044 117363 103413 168098 89493 143497 141149 35692 118695 38510 100428 71757 69000 58055 81348 23216 24019 60624 22692 35165 12681 22442 22454 17736
internal_count=442833 407141 368631 238587 215895 191314 130044 117363 103413 168098 89493 143497 141149 35692 118695 38510 100428 71757 69000 58055 81348 23216 24019 60624 22692 35165 12681 22442 22454 17736
is_linear=0
shrinkage=0.1


Tree=20
num_leaves=31
num_cat=0
split_feature=9 11 0 3 6 5 2 7 1 12 14 0 0 0 7 0 1 0 7 0 1 0 1 8 0 0 12 14 13 4
split_gain=470.298 279.656 239.866 186.781 212.853 93.986 99.6875 73.5238 64.4693 63.7954 80.7278 54.5153 45.1759 37.8242 33.9995 27.3098 23.6627 20.5213 19.377 18.0881 17.8767 17.5107 17.3077 18.9996 15.7502 14.303 13.7409 21.916 13.5354 19.841
threshold=1.0000000180025095e-35 1.0000000180025095e-35 2.8850000000000002 1.0000000180025095e-35 1.0000000180025095e-35 1.0000000180025095e-35 1.0000000180025095e-35 1.0000000180025095e-35 1.0000000180025095e-35 1.0000000180025095e-35 1.0000000180025095e-35 1.5050000000000001 3.6150000000000007 3.0050000000000003 1.0000000180025095e-35 0.67500000000000016 0.0097811258667990907 1.0250000000000001 1.0000000180025095e-35 5.4150000000000009 1.0000000180025095e-35 0.57500000000000007 1.0000000180025095e-35 1.0000000180025095e-35 1.3450000000000004 1.2950000000000002 1.0000000180025095e-35 1.0000000180025095e-35 1.0000000180025095e-35 1.0000000180025095e-35
decision_type=2 2 2 2 2 2 2 2 2 2 2 2 2 2 2 2 2 2 2 2 2 2 2 2 2 2 2 2 2 2
left_child=1 2 3 4 5 6 8 9 11 10 12 14 22 17 21 -3 25 -2 26 -17 -6 -1 23 -4 -8 -7 27 -13 29 -23
right_child=13 15 7 -5 20 16 24 -9 -10 -11 -12 18 -14 -15 -16 19 -18 -19 -20 -21 -22 28 -24 -25 -26 -27 -28 -29 -30 -31
leaf_value=-0.0086369004697191189 -0.01883422052430303 -0.015919648187276876 0.0082439446318191972 0.0078560989894799083 0.0075263375556325054 0.0004036501188414603 -2.4121925245264799e-05 -0.0018391241549989815 0.0069598379116546042 -0.00071298639988199122 -0.00072673489382082588 0.00069069400027224343 0.013711841857003896 -0.0051850017745129311 -0.010571151456860788 -0.0066628921197629566 0.020377118711419017 -0.011570587869808619 -0.0055807064385638636 0.0093406084254861986 0.019490310410390947 -0.0060064304376962249 0.017079077332299002 0.0024457007032137696 0.0047813062076106604 0.0053737990963240645 -0.003860122962965232 -0.0036726951785035072 -0.00087596292807634124 -0.00097535815906923105
leaf_weight=9543 4703 3247 38186 29491 23831 9137 10674 10093 5956 9062 8937 40550 17736 8502 11621 34542 865 22487 12244 721 1318 32562 1921 6633 18893 15807 16083 16074 11090 10324
leaf_count=9543 4703 3247 38186 29491 23831 9137 10674 10093 5956 9062 8937 40550 17736 8502 11621 34542 865 22487 12244 721 1318 32562 1921 6633 18893 15807 16083 16074 11090 10324
internal_value=0 0.000964894 0.00181199 0.000334868 -0.000564702 -0.00155489 -0.00230324 0.00621715 -0.00325584 0.00720305 0.0081802 -0.0036359 0.00941479 -0.0110066 -0.00559801 -0.00714376 0.00411709 -0.012827 -0.00190039 -0.00633568 0.00815334 -0.00468816 0.00778422 0.00738583 0.0030465 0.00355323 -0.00128061 -0.000547952 -0.00399002 -0.00479529
internal_weight=0 407141 368631 276063 246572 221423 195614 92568 166047 82475 73413 160091 64476 35692 75140 38510 25809 27190 84951 35263 25149 63519 46740 44819 29567 24944 72707 56624 53976 42886
internal_count=442833 407141 368631 276063 246572 221423 195614 92568 166047 82475 73413 160091 64476 35692 75140 38510 25809 27190 84951 35263 25149 63519 46740 44819 29567 24944 72707 56624 53976 42886
is_linear=0
shrinkage=0.1


Tree=21
num_leaves=31
num_cat=0
split_feature=9 3 6 0 11 5 2 1 0 1 0 5 2 0 7 4 0 0 1 0 13 8 4 0 13 0 8 0 0 0
split_gain=380.942 230.283 273.266 188.896 100.464 75.1104 80.5177 54.7023 51.8157 51.0958 44.969 39.0099 41.9791 31.431 25.6329 23.0476 22.8205 21.7176 19.2861 18.2627 17.591 21.5209 17.1087 16.2909 15.4607 15.3427 13.7384 13.6002 12.6581 12.6497
threshold=1.0000000180025095e-35 1.0000000180025095e-35 1.0000000180025095e-35 2.8650000000000007 1.0000000180025095e-35 1.0000000180025095e-35 1.0000000180025095e-35 0.0097811258667990907 4.7750000000000012 1.0000000180025095e-35 1.5050000000000001 1.0000000180025095e-35 1.0000000180025095e-35 1.3050000000000004 1.0000000180025095e-35 1.0000000180025095e-35 1.6450000000000002 1.635 1.0000000180025095e-35 3.6150000000000007 1.0000000180025095e-35 1.0000000180025095e-35 1.0000000180025095e-35 0.67500000000000016 1.0000000180025095e-35 0.69500000000000006 1.0000000180025095e-35 3.7950000000000004 1.3450000000000004 3.6150000000000007
decision_type=2 2 2 2 2 2 2 2 2 2 2 2 2 2 2 2 2 2 2 2 2 2 2 2 2 2 2 2 2 2
left_child=1 2 3 4 5 6 7 10 9 11 14 12 15 -2 25 20 -3 -4 -7 -15 21 -5 24 -6 26 -1 -12 -18 -8 -19
right_child=13 16 17 8 23 18 28 -9 -10 -11 22 -13 -14 19 -16 -17 27 29 -20 -21 -22 -23 -24 -25 -26 -27 -28 -29 -30 -31
leaf_value=-0.0069894199580568242 -0.014883653453520086 0.0054120522749638933 0.0056014908243487115 -0.0023978392369375053 -0.014327683039858576 0.0028909913015976877 -2.1709747513358641e-05 0.011199116979131851 0.012418008537450292 0.014970619596112201 -0.0037886912940545861 0.0083372185109435552 0.0079194475960528456 -0.0090258594038831064 -0.0091754793815393872 0.005065742290584728 0.00959606892179201 0.01004587818060473 0.01322447197318481 -0.00033586946341645395 0.0037523492249721085 0.0031246898964430976 0.0017900236230837592 -0.006816390876046032 0.00056300649481974064 -0.0033129918391285743 -5.3398404865287128e-05 0.018122887702198748 0.0042904830232117549 0.019266451418639263
leaf_weight=14708 9359 15778 13490 34109 3247 23574 10674 2689 5780 3215 44531 8894 8406 23639 12058 8929 19866 18500 1956 2694 8382 8897 12631 26076 15895 49740 12642 2065 18791 1618
leaf_count=14708 9359 15778 13490 34109 3247 23574 10674 2689 5780 3215 44531 8894 8406 23639 12058 8929 19866 18500 1956 2694 8382 8897 12631 26076 15895 49740 12642 2065 18791 1618
internal_value=0 0.000868405 0.000108579 -0.000751803 -0.00214997 -0.00141677 -0.00208661 -0.002947 0.0032712 0.00261715 -0.00318151 0.00210545 0.00129895 -0.00990595 -0.00494375 0.00037629 0.00831236 0.00870584 0.0036827 -0.00813683 -0.000438533 -0.00125535 -0.00160831 -0.00764813 -0.00219577 -0.00415201 -0.00296275 0.0103989 0.00272835 0.0107874
internal_weight=0 407141 369432 335824 249212 219889 194359 164894 86612 80832 162205 77617 68723 35692 76506 60317 37709 33608 25530 26333 51388 43006 85699 29323 73068 64448 57173 21931 29465 20118
internal_count=442833 407141 369432 335824 249212 219889 194359 164894 86612 80832 162205 77617 68723 35692 76506 60317 37709 33608 25530 26333 51388 43006 85699 29323 73068 64448 57173 21931 29465 20118
is_linear=0
shrinkage=0.1


Tree=22
num_leaves=31
num_cat=0
split_feature=9 3 6 0 11 1 7 0 12 14 5 0 0 1 2 0 0 4 12 14 0 0 0 5 2 8 13 0 0 0
split_gain=308.563 186.529 221.346 156.314 87.636 69.5714 66.1587 55.1182 38.8501 53.7227 37.328 32.8956 26.5674 24.9352 25.933 18.4846 17.8459 17.2477 16.8952 23.6638 13.5567 12.9261 12.5999 12.2897 15.8599 11.0192 15.4119 11.0162 10.7175 10.565
threshold=1.0000000180025095e-35 1.0000000180025095e-35 1.0000000180025095e-35 3.0450000000000004 1.0000000180025095e-35 0.0097811258667990907 1.0000000180025095e-35 1.2750000000000001 1.0000000180025095e-35 1.0000000180025095e-35 1.0000000180025095e-35 4.7750000000000012 2.7250000000000005 0.0097811258667990907 1.0000000180025095e-35 1.6450000000000002 1.4950000000000003 1.0000000180025095e-35 1.0000000180025095e-35 1.0000000180025095e-35 0.71500000000000008 1.7750000000000001 1.0250000000000001 1.0000000180025095e-35 1.0000000180025095e-35 1.0000000180025095e-35 1.0000000180025095e-35 3.7950000000000004 4.7250000000000005 3.6150000000000007
decision_type=2 2 2 2 2 2 2 2 2 2 2 2 2 2 2 2 2 2 2 2 2 2 2 2 2 2 2 2 2 2
left_child=1 2 3 4 5 6 7 18 9 23 11 13 22 14 17 -3 -4 25 19 -1 -6 -8 -2 24 -9 26 -5 -17 -14 -18
right_child=12 15 16 10 20 -7 21 8 -10 -11 -12 -13 28 -15 -16 27 29 -19 -20 -21 -22 -23 -24 -25 -26 -27 -28 -29 -30 -31
leaf_value=-0.0015300700517322915 -0.015462433285068609 0.0048708471783101212 0.0047740982793481159 -0.0016514773300866854 -0.012796261720693433 0.012101757027237999 -0.0079624301772541085 0.00069775027011917737 -0.0035208399833807653 -0.0034175264608178216 0.010037249910940196 0.010265262387195771 -0.0057337970498856795 0.0180750526100103 0.0075214614557619136 0.0086364619929979233 0.0089360507337473763 0.0054264595918023977 -0.0070194638141220086 -0.0070258213498767281 -0.0060552366755254597 -0.0035390454626339574 -0.009689565606840915 0.0044765834126584761 0.0038819322398262004 0.0036946828054224994 0.0036749745582707106 0.01631059900922904 0.0076449122850740505 0.017339806906575033
leaf_weight=45723 4703 15778 12156 27574 3345 3912 15019 57266 21547 21556 7845 5278 11075 950 6801 19866 19834 7263 9589 9455 27593 11794 19281 17804 21521 7224 6765 2065 633 1618
leaf_count=45723 4703 15778 12156 27574 3345 3912 15019 57266 21547 21556 7845 5278 11075 950 6801 19866 19834 7263 9589 9455 27593 11794 19281 17804 21521 7224 6765 2065 633 1618
internal_value=0 0.000781564 9.77212e-05 -0.000676622 -0.00178075 -0.00112257 -0.00134626 -0.000733775 0.000384195 0.00109637 0.00353907 0.00271491 -0.00891536 0.00201055 0.0017362 0.00748112 0.00783526 0.000930368 -0.00314509 -0.00247179 -0.00678407 -0.00601675 -0.0108216 0.00210373 0.00156752 0.00014469 -0.000602133 0.00935905 -0.00501047 0.0095699
internal_weight=0 407141 369432 335824 266124 235186 231274 204461 139694 118147 69700 61855 35692 56577 55627 37709 33608 48826 64767 55178 30938 26813 23984 96591 78787 41563 34339 21931 11708 21452
internal_count=442833 407141 369432 335824 266124 235186 231274 204461 139694 118147 69700 61855 35692 56577 55627 37709 33608 48826 64767 55178 30938 26813 23984 96591 78787 41563 34339 21931 11708 21452
is_linear=0
shrinkage=0.1


Tree=23
num_leaves=31
num_cat=0
split_feature=9 0 11 3 6 6 3 1 0 5 2 11 7 4 13 12 14 0 0 1 8 0 1 0 7 0 0 0 1 0
split_gain=249.936 152.722 81.1775 74.0805 88.4186 64.4741 79.1536 51.7835 46.2396 43.39 39.0558 37.0853 33.0599 30.0876 23.6506 22.8699 31.9817 22.5331 20.7412 20.4743 13.1422 13.1021 12.1416 12.0921 10.4223 9.91376 8.32459 8.11864 8.06789 7.79787
threshold=1.0000000180025095e-35 2.1950000000000007 1.0000000180025095e-35 1.0000000180025095e-35 1.0000000180025095e-35 1.0000000180025095e-35 1.0000000180025095e-35 1.0000000180025095e-35 4.7750000000000012 1.0000000180025095e-35 1.0000000180025095e-35 1.0000000180025095e-35 1.0000000180025095e-35 1.0000000180025095e-35 1.0000000180025095e-35 1.0000000180025095e-35 1.0000000180025095e-35 3.1550000000000007 3.2250000000000005 1.0000000180025095e-35 1.0000000180025095e-35 1.1050000000000002 1.0000000180025095e-35 3.6150000000000007 1.0000000180025095e-35 1.2950000000000002 0.71500000000000008 3.6150000000000007 0.0097811258667990907 0.53500000000000014
decision_type=2 2 2 2 2 2 2 2 2 2 2 2 2 2 2 2 2 2 2 2 2 2 2 2 2 2 2 2 2 2
left_child=1 2 5 4 7 6 9 8 11 10 13 12 15 14 19 16 18 21 -3 20 -1 -2 -7 -9 -10 -11 -22 -5 -15 -16
right_child=17 3 -4 27 -6 22 -8 23 24 25 -12 -13 -14 28 29 -17 -18 -19 -20 -21 26 -23 -24 -25 -26 -27 -28 -29 -30 -31
leaf_value=-0.0058091820076046543 -0.013139878749701234 0.0023513552036558477 -0.0073137342852767212 0.008004537344451149 0.0092969831098298154 0.0045125072295673129 0.0048329721519888846 0.008676161892874238 0.011184178546351306 0.0003527811744889974 0.0015754978924202288 -0.0035164372040881204 -0.0030610288935549006 9.2923055630768836e-05 -0.0087595324643806229 -0.0014011561781311073 -0.0013541387093602604 -0.0025961828246123643 0.0059772166042711215 0.0040435697185629482 -0.0080172856077642789 -0.0080593072570879273 0.016035361527552052 0.02164486475337922 -0.0043023101718239641 0.0050021335227596053 -0.0017243295422298311 0.01450731361190088 0.012434708772972569 -0.00037111668724329288
leaf_weight=56390 6524 61501 19571 15932 15510 17132 19594 5252 5224 9329 19596 18193 15431 17708 1179 18231 18148 6299 21220 2548 2458 22869 966 833 474 9021 14518 2183 546 18453
leaf_count=56390 6524 61501 19571 15932 15510 17132 19594 5252 5224 9329 19596 18193 15431 17708 1179 18231 18148 6299 21220 2548 2458 22869 966 833 474 9021 14518 2183 546 18453
internal_value=0 0.000703408 -0.0011823 0.00269263 0.00207924 -0.000548852 -0.00114843 0.00139874 0.00105102 -0.00192077 -0.00254794 0.00072103 0.00129407 -0.00325798 -0.00396869 0.00185834 0.00244745 -0.00802382 0.00328148 -0.00476878 -0.00507483 -0.00918698 0.00512755 0.0104515 0.0098959 0.00263844 -0.0026355 0.00878817 0.000462081 -0.000874883
internal_weight=0 407141 209009 198132 180017 189438 171340 164507 158422 151746 133396 152724 134531 113800 95546 119100 100869 35692 82721 75914 73366 29393 18098 6085 5698 18350 16976 18115 18254 19632
internal_count=442833 407141 209009 198132 180017 189438 171340 164507 158422 151746 133396 152724 134531 113800 95546 119100 100869 35692 82721 75914 73366 29393 18098 6085 5698 18350 16976 18115 18254 19632
is_linear=0
shrinkage=0.1


Tree=24
num_leaves=31
num_cat=0
split_feature=9 0 3 6 5 11 2 7 12 14 1 4 1 8 0 0 13 8 3 6 1 0 0 1 0 0 0 0 0 0
split_gain=202.448 126.514 71.1592 84.5702 55.7751 54.3876 50.6588 49.8204 40.0408 50.7997 34.7376 25.4529 23.3624 23.4734 21.3637 18.4193 14.8885 17.7394 11.7214 16.3116 11.5971 10.5185 10.3383 10.246 10.1994 10.0563 8.94144 7.67334 7.39187 7.15765
threshold=1.0000000180025095e-35 1.7750000000000001 1.0000000180025095e-35 1.0000000180025095e-35 1.0000000180025095e-35 1.0000000180025095e-35 1.0000000180025095e-35 1.0000000180025095e-35 1.0000000180025095e-35 1.0000000180025095e-35 1.0000000180025095e-35 1.0000000180025095e-35 0.0097811258667990907 1.0000000180025095e-35 5.4150000000000009 2.4250000000000003 1.0000000180025095e-35 1.0000000180025095e-35 1.0000000180025095e-35 1.0000000180025095e-35 1.0000000180025095e-35 3.7250000000000005 5.4150000000000009 1.0000000180025095e-35 3.6150000000000007 1.0850000000000002 4.7250000000000005 3.6150000000000007 1.0250000000000001 3.5350000000000006
decision_type=2 2 2 2 2 2 2 2 2 2 2 2 2 2 2 2 2 2 2 2 2 2 2 2 2 2 2 2 2 2
left_child=1 5 3 4 6 7 10 8 9 12 11 14 13 18 16 28 17 -3 19 25 21 -6 -8 -9 -12 -1 -17 -5 -2 -4
right_child=15 2 29 27 20 -7 22 23 -10 -11 24 -13 -14 -15 -16 26 -18 -19 -20 -21 -22 -23 -24 -25 -26 -27 -28 -29 -30 -31
leaf_value=-0.0012309286053896484 -0.012602202680778586 -0.0023866348144443322 0.0070093231148463568 0.0074630868308406487 0.0043715864604425888 -0.0069257435988306637 0.0044683197379972572 -0.0069180587551052998 -0.004920266181388422 -0.0048822223366631022 0.0059183446279135951 0.0029055784507599869 0.012950502519696448 -0.0027538160496259974 0.0071659530590283535 -0.0050122438106429247 0.0011304251712826695 0.001032332216789261 0.0039643117572107419 0.0039591872180152086 0.014487203417535411 0.011406012400589267 0.01696389741536999 0.003254447522154166 0.018689449557936506 0.001350767361031678 0.0071400394218887019 0.014676127766059859 -0.0081060929047377297 0.012889555022128752
leaf_weight=25496 4703 83328 19146 16670 16101 16175 21660 14447 16288 16197 4671 18629 1643 14879 3085 13921 21527 18555 16242 15102 1484 2449 683 1063 722 36960 633 1618 16435 2321
leaf_count=25496 4703 83328 19146 16670 16101 16175 21660 14447 16288 16197 4671 18629 1643 14879 3085 13921 21527 18555 16242 15102 1484 2449 683 1063 722 36960 633 1618 16435 2321
internal_value=0 0.000633067 0.0021597 0.0016021 0.000985924 -0.00140238 0.000407032 -0.000838066 -0.00025345 0.000347354 -0.000252533 -0.000545388 0.00111514 0.000936212 -0.00105361 -0.00722144 -0.00125909 -0.00176397 0.00152154 0.00100998 0.0059808 0.00530028 0.0048503 -0.00622087 0.00762811 0.000296859 -0.0044837 0.00810125 -0.00910643 0.00764509
internal_weight=0 407141 232649 211182 192894 174492 172860 158317 142807 126519 150517 145124 110322 108679 126495 35692 123410 101883 93800 77558 20034 18550 22343 15510 5393 62456 14554 18288 21138 21467
internal_count=442833 407141 232649 211182 192894 174492 172860 158317 142807 126519 150517 145124 110322 108679 126495 35692 123410 101883 93800 77558 20034 18550 22343 15510 5393 62456 14554 18288 21138 21467
is_linear=0
shrinkage=0.1


Tree=25
num_leaves=31
num_cat=0
split_feature=9 0 3 6 5 2 0 7 11 1 0 4 0 1 6 3 1 13 4 13 1 8 0 0 5 2 0 0 0 0
split_gain=163.983 108.731 86.6418 94.7136 50.1479 53.7495 33.5688 24.6983 24.3956 21.4379 17.9459 16.5199 15.8444 14.6719 14.25 15.421 13.7939 13.4132 13.3488 15.0203 12.4438 10.6749 8.90265 8.56345 7.41231 7.33585 7.16268 6.6139 5.86841 8.28476
threshold=1.0000000180025095e-35 3.0750000000000006 1.0000000180025095e-35 1.0000000180025095e-35 1.0000000180025095e-35 1.0000000180025095e-35 1.405 1.0000000180025095e-35 1.0000000180025095e-35 0.0097811258667990907 4.5750000000000011 1.0000000180025095e-35 3.1650000000000005 1.0000000180025095e-35 1.0000000180025095e-35 1.0000000180025095e-35 0.0097811258667990907 1.0000000180025095e-35 1.0000000180025095e-35 1.0000000180025095e-35 1.0000000180025095e-35 1.0000000180025095e-35 1.155 0.54500000000000015 1.0000000180025095e-35 1.0000000180025095e-35 1.3450000000000004 1.135 1.6050000000000002 1.4150000000000003
decision_type=2 2 2 2 2 2 2 2 2 2 2 2 2 2 2 2 2 2 2 2 2 2 2 2 2 2 2 2 2 2
left_child=1 2 3 4 5 6 11 8 10 18 13 17 22 14 15 24 27 23 19 21 -5 28 -2 -1 25 -3 -7 -6 29 -8
right_child=12 7 -4 20 16 26 9 -9 -10 -11 -12 -13 -14 -15 -16 -17 -18 -19 -20 -21 -22 -23 -24 -25 -26 -27 -28 -29 -30 -31
leaf_value=-0.0087762628140385344 -0.010502972118983158 0.0017172712690723361 0.0047408841571691066 0.0043813407959462465 -0.00038478831868269059 -5.4074846295259814e-05 0.00048092289986163508 -0.0013720673221948466 -0.0011625351270324012 0.0081933390306927045 0.0094108401760722264 -0.00029609495215896528 -0.0018669250712587812 0.013772402956688119 0.0089618023545290533 0.0088038318053198349 0.014645301296260833 -0.0014638426857784635 0.001094078694158147 0.00054798738023062487 0.014092468175536235 -0.00016686060062619926 -0.006469115806956781 -0.0047605329499169442 0.0061998864417944083 0.0057813770520093281 0.0031164111904109664 0.0031990039929718308 -0.002572624410780149 -0.0062644205044221886
leaf_weight=5938 7247 27687 32032 26022 6893 10674 2246 7613 6538 2305 8913 10586 6118 1669 5664 5100 935 11705 16858 20336 1390 16889 22327 50236 5965 5290 21435 20360 66243 9619
leaf_count=5938 7247 27687 32032 26022 6893 10674 2246 7613 6538 2305 8913 10586 6118 1669 5664 5100 935 11705 16858 20336 1390 16889 22327 50236 5965 5290 21435 20360 66243 9619
internal_value=0 0.00056976 -0.000203236 -0.00072996 -0.0012921 -0.00175154 -0.00232659 0.00402464 0.00463944 -0.00136763 0.00526864 -0.00397033 -0.00649929 0.00455002 0.00424036 0.00363316 0.00270231 -0.00454335 -0.00153434 -0.00191853 0.00487377 -0.00244654 -0.0074576 -0.00518502 0.00295598 0.00236921 0.00206245 0.00229257 -0.00293946 -0.00498755
internal_weight=0 407141 332702 300670 273258 245070 212961 74439 66826 134496 60288 78465 35692 51375 49706 44042 28188 67879 132191 115333 27412 94997 29574 56174 38942 32977 32109 27253 78108 11865
internal_count=442833 407141 332702 300670 273258 245070 212961 74439 66826 134496 60288 78465 35692 51375 49706 44042 28188 67879 132191 115333 27412 94997 29574 56174 38942 32977 32109 27253 78108 11865
is_linear=0
shrinkage=0.1


Tree=26
num_leaves=31
num_cat=0
split_feature=9 0 11 6 3 11 1 7 12 14 7 0 0 0 5 2 1 1 8 0 0 13 4 0 0 4 1 0 6 1
split_gain=132.826 90.8653 57.607 43.998 52.3693 30.446 29.9937 27.9805 30.1178 38.7295 27.4215 24.7398 20.4557 12.9891 12.7895 14.5277 11.73 9.15691 8.92959 6.99921 10.7151 6.89719 7.00164 6.77389 6.50197 6.04399 5.75101 5.60218 4.60242 4.58807
threshold=1.0000000180025095e-35 2.6150000000000007 1.0000000180025095e-35 1.0000000180025095e-35 1.0000000180025095e-35 1.0000000180025095e-35 1.0000000180025095e-35 1.0000000180025095e-35 1.0000000180025095e-35 1.0000000180025095e-35 1.0000000180025095e-35 3.9650000000000003 1.0350000000000004 3.0050000000000003 1.0000000180025095e-35 1.0000000180025095e-35 0.0097811258667990907 1.0000000180025095e-35 1.0000000180025095e-35 0.67500000000000016 0.62500000000000011 1.0000000180025095e-35 1.0000000180025095e-35 4.9650000000000007 1.0550000000000004 1.0000000180025095e-35 1.0000000180025095e-35 4.7250000000000005 1.0000000180025095e-35 0.0097811258667990907
decision_type=2 2 2 2 2 2 2 2 2 2 2 2 2 2 2 2 2 2 2 2 2 2 2 2 2 2 2 2 2 2
left_child=1 2 3 4 6 7 10 8 9 11 12 16 -1 24 15 25 18 -5 21 20 -4 22 -3 26 -2 -14 28 -15 -13 -9
right_child=13 5 19 17 -6 -7 -8 29 -10 -11 -12 23 14 27 -16 -17 -18 -19 -20 -21 -22 -23 -24 -25 -26 -27 -28 -29 -30 -31
leaf_value=-0.0030024225612640667 -0.010088205352508345 0.0053842964018125487 -0.0077082394940286587 0.003592248724990442 0.0037863129020267827 -0.0018980385085360784 0.0053334072740237491 -0.0018658639957653601 -0.00087060758878066335 -0.0008275441828316972 -0.0047148668255287372 0.0063244160634579969 -0.0016261762753449597 -0.0031658860046806141 0.0022469256443030366 0.0018126289965624152 0.014136548116454437 0.012512301510191479 0.0010544161231160645 -0.0045495012376460435 -0.027605501854254696 0.002068706532267157 0.0023912298807391742 0.012613042876928496 -0.0061622528768334635 0.00047333086404285495 0.018103023901817495 0.0066127278622810691 0.012348890390956562 0.0073222792617361242
leaf_weight=36486 5221 41447 2949 21476 24581 14007 6947 12112 13950 13920 21520 11648 73733 7869 16889 18895 1135 1216 9615 21256 298 11091 9632 3020 21969 16844 482 633 1423 569
leaf_count=36486 5221 41447 2949 21476 24581 14007 6947 12112 13950 13920 21520 11648 73733 7869 16889 18895 1135 1216 9615 21256 298 11091 9632 3020 21969 16844 482 633 1423 569
internal_value=0 0.000512784 -0.000592649 -0.000118438 -0.000558697 0.00253171 -0.00111697 0.00300884 0.003491 0.00407937 -0.00136002 0.0048426 -0.00091668 -0.00584937 -0.000314433 -0.000709592 0.00404995 0.00407025 0.00389047 -0.00521007 -0.00953435 0.00432909 0.00481989 0.00833019 -0.00691611 -0.00123574 0.00737585 -0.00243784 0.00698028 -0.00145359
internal_weight=0 407141 263090 238587 215895 144051 191314 130044 117363 103413 184367 89493 162847 35692 126361 109472 72920 22692 71785 24503 3247 62170 51079 16573 27190 90577 13553 8502 13071 12681
internal_count=442833 407141 263090 238587 215895 144051 191314 130044 117363 103413 184367 89493 162847 35692 126361 109472 72920 22692 71785 24503 3247 62170 51079 16573 27190 90577 13553 8502 13071 12681
is_linear=0
shrinkage=0.1


Tree=27
num_leaves=31
num_cat=0
split_feature=9 0 3 6 11 1 7 0 7 11 12 14 0 12 14 0 1 1 0 0 0 12 14 6 3 0 0 0 8 0
split_gain=107.589 74.6396 55.0727 62.0685 33.5479 29.0018 25.3345 22.3982 15.2874 18.8261 14.0809 19.0001 13.8288 11.4239 14.3315 11.0185 8.35829 8.05395 6.9608 9.48752 6.04393 5.95366 8.48282 5.88631 7.39558 5.79896 5.14438 4.72773 4.64957 4.55049
threshold=1.0000000180025095e-35 3.0450000000000004 1.0000000180025095e-35 1.0000000180025095e-35 1.0000000180025095e-35 0.0097811258667990907 1.0000000180025095e-35 1.2250000000000003 1.0000000180025095e-35 1.0000000180025095e-35 1.0000000180025095e-35 1.0000000180025095e-35 4.5750000000000011 1.0000000180025095e-35 1.0000000180025095e-35 1.9650000000000001 1.0000000180025095e-35 1.0000000180025095e-35 0.65500000000000014 0.62500000000000011 4.7150000000000007 1.0000000180025095e-35 1.0000000180025095e-35 1.0000000180025095e-35 1.0000000180025095e-35 1.7750000000000001 3.0350000000000006 3.0350000000000006 1.0000000180025095e-35 1.4850000000000001
decision_type=2 2 2 2 2 2 2 2 2 2 2 2 2 2 2 2 2 2 2 2 2 2 2 2 2 2 2 2 2 2
left_child=1 2 3 4 5 6 7 21 9 12 11 28 13 14 17 -2 29 23 19 -6 -17 22 -1 24 -3 -8 -13 -12 -9 -5
right_child=15 8 -4 16 18 -7 25 10 -10 -11 27 26 -14 -15 -16 20 -18 -19 -20 -21 -22 -23 -24 -25 -26 -27 -28 -29 -30 -31
leaf_value=-0.0011011730698590519 -0.0071817252482824934 0.0033101486508088024 0.0037846046693668076 0.0020221591639419528 -0.0069374156637681305 0.0078344544534062477 -0.0050416485802234822 0.0015123022848653118 -0.00098758650148959566 -0.0011458604138273683 -0.0019064245887318776 -0.0018105117449758242 0.0077823149334599294 -0.00045537859805754841 -0.00046242675659440252 -0.0039873519617299935 0.011503418986425937 0.011250149712835505 -0.0036948307189240224 -0.026262265615326037 0.005699753938340533 -0.0045358929527146517 -0.0045551641109838632 0.0072627991880229378 0.0071007395823121308 -0.0020788859214678872 -0.012473339078246387 -0.012074649688135633 -0.00021996622095537817 0.0047077499905981215
leaf_weight=40670 16292 31881 30994 11340 2949 3912 15019 82570 8114 7572 21921 21932 8913 6337 6223 18733 1381 1778 27711 278 667 8748 8617 6124 6138 11794 462 467 19074 14222
leaf_count=40670 16292 31881 30994 11340 2949 3912 15019 82570 8114 7572 21921 21932 8913 6337 6223 18733 1381 1778 27711 278 667 8748 8617 6124 6138 11794 462 467 19074 14222
internal_value=0 0.000461506 -0.000224056 -0.000648002 -0.00111106 -0.000703836 -0.000848261 -0.000469243 0.0031356 0.00358188 0.000189685 0.000606301 0.00411306 0.00355384 0.00404107 -0.00526443 0.00392574 0.00465137 -0.0042067 -0.00860222 -0.0036543 -0.00213176 -0.00170505 0.00438558 0.00392212 -0.00373844 -0.00203049 -0.00211853 0.00118723 0.00351635
internal_weight=0 407141 324061 293067 266124 235186 231274 204461 83080 74966 146426 124038 67394 58481 52144 35692 26943 45921 30938 3227 19400 58035 49287 44143 38019 26813 22394 22388 101644 25562
internal_count=442833 407141 324061 293067 266124 235186 231274 204461 83080 74966 146426 124038 67394 58481 52144 35692 26943 45921 30938 3227 19400 58035 49287 44143 38019 26813 22394 22388 101644 25562
is_linear=0
shrinkage=0.1


Tree=28
num_leaves=31
num_cat=0
split_feature=9 0 6 3 5 2 11 1 7 14 12 0 1 0 8 11 0 1 4 0 0 7 0 0 1 0 0 0 3 6
split_gain=87.1472 62.6442 37.3456 44.4258 32.6862 25.249 20.0303 18.5952 17.9925 15.6418 20.3421 15.3147 9.86841 9.39083 9.27171 7.83174 7.22388 6.9735 6.6491 6.27402 6.21026 6.05333 5.97157 5.345 4.96086 4.75292 4.69464 4.68737 3.66923 3.90082
threshold=1.0000000180025095e-35 1.5050000000000001 1.0000000180025095e-35 1.0000000180025095e-35 1.0000000180025095e-35 1.0000000180025095e-35 1.0000000180025095e-35 0.0097811258667990907 1.0000000180025095e-35 1.0000000180025095e-35 1.0000000180025095e-35 3.2250000000000005 0.0097811258667990907 3.1650000000000005 1.0000000180025095e-35 1.0000000180025095e-35 6.2650000000000006 1.0000000180025095e-35 1.0000000180025095e-35 4.2650000000000006 3.6150000000000007 1.0000000180025095e-35 5.4150000000000009 1.155 1.0000000180025095e-35 3.7950000000000004 3.3750000000000004 0.69500000000000006 1.0000000180025095e-35 1.0000000180025095e-35
decision_type=2 2 2 2 2 2 2 2 2 2 2 2 2 2 2 2 2 2 2 2 2 2 2 2 2 2 2 2 2 2
left_child=1 6 3 4 5 7 8 11 9 10 12 15 14 23 28 21 18 19 -13 -6 -9 -3 -7 -2 -10 -5 -4 -16 29 -1
right_child=13 2 26 25 17 22 -8 20 24 -11 -12 16 -14 -15 27 -17 -18 -19 -20 -21 -22 -23 -24 -25 -26 -27 -28 -29 -30 -31
leaf_value=3.3647677159657942e-05 -0.0078354376614324078 -0.00032183861695205186 0.0048024662644035772 0.0046087288640646058 0.0030498859933696487 0.0028067365096734959 -0.0049537091887622243 0.0059499919735354284 -0.005033790537757786 -0.0037157683877663879 -0.0037020383655177545 0.00056712920910634377 0.009420855605540665 -0.001171694754069685 -0.0062086092816157779 -0.0027907586034169704 0.0095964257655122079 0.010136867456877948 0.0045599497786666917 0.0090864130176008234 0.020669966505736298 -0.0023372126732891995 0.012286888185130381 -0.0047098292073696852 0.003150657359504773 0.0096246000409090215 0.0094256544731719152 -0.001265198498574194 0.002235897128546428 0.0020274405304822924
leaf_weight=50996 7247 94923 18800 22185 19447 24456 13403 2608 11621 13448 13549 29440 1211 6118 2398 19889 1039 1758 4859 1889 322 17679 683 22327 791 2065 2487 9585 13459 12151
leaf_count=50996 7247 94923 18800 22185 19447 24456 13403 2608 11621 13448 13549 29440 1211 6118 2398 19889 1039 1758 4859 1889 322 17679 683 22327 791 2065 2487 9585 13459 12151
internal_value=0 0.000415355 0.00132613 0.000974631 0.000524913 0.000105441 -0.00127402 -0.00033016 -0.000892324 -0.00050764 -9.01912e-05 -0.000468042 0.000454763 -0.00473799 0.000332198 -0.000961385 0.00138162 0.00408314 0.00113278 0.00358433 0.00756768 -0.000638261 0.0030643 -0.00547575 -0.00451221 0.00503585 0.0053426 -0.00225446 0.000736813 0.000417301
internal_weight=0 407141 264529 243242 218992 195898 142612 170759 129209 116797 103349 167829 89800 35692 88589 132491 35338 23094 34299 21336 2930 112602 25139 29574 12412 24250 21287 11983 76606 63147
internal_count=442833 407141 264529 243242 218992 195898 142612 170759 129209 116797 103349 167829 89800 35692 88589 132491 35338 23094 34299 21336 2930 112602 25139 29574 12412 24250 21287 11983 76606 63147
is_linear=0
shrinkage=0.1


Tree=29
num_leaves=31
num_cat=0
split_feature=9 0 11 6 3 1 3 6 1 0 7 0 5 2 12 14 0 1 4 13 8 0 7 0 0 0 0 0 0 8
split_gain=70.5893 53.0698 30.9883 23.7631 27.4371 17.6467 17.3525 18.8561 15.4956 14.4101 14.2685 12.4098 11.6112 13.8461 8.24847 11.0948 8.03009 6.79951 6.78873 6.41032 5.91027 5.3132 4.27037 4.26862 7.68489 3.44451 7.04189 3.32142 7.18571 3.22056
threshold=1.0000000180025095e-35 2.6150000000000007 1.0000000180025095e-35 1.0000000180025095e-35 1.0000000180025095e-35 1.0000000180025095e-35 1.0000000180025095e-35 1.0000000180025095e-35 0.0097811258667990907 4.7750000000000012 1.0000000180025095e-35 0.80500000000000016 1.0000000180025095e-35 1.0000000180025095e-35 1.0000000180025095e-35 1.0000000180025095e-35 3.5350000000000006 0.0097811258667990907 1.0000000180025095e-35 1.0000000180025095e-35 1.0000000180025095e-35 1.3050000000000004 1.0000000180025095e-35 0.65500000000000014 0.62500000000000011 2.1950000000000007 2.1350000000000002 2.1950000000000007 2.1350000000000002 1.0000000180025095e-35
decision_type=2 2 2 2 2 2 2 2 2 2 2 2 2 2 2 2 2 2 2 2 2 2 2 2 2 2 2 2 2 2
left_child=1 2 3 4 5 10 7 8 9 12 11 -1 13 18 15 29 21 -5 19 20 -3 -2 -11 24 -4 26 -16 28 -17 -13
right_child=16 6 23 17 -6 -7 -8 -9 -10 22 -12 14 -14 -15 25 27 -18 -19 -20 -21 -22 -23 -24 -25 -26 -27 -28 -29 -30 -31
leaf_value=-0.002763145739578093 -0.0067139188376409481 -0.0012117812209721823 -0.0057483031494349052 0.0027669653896009293 0.0026982695827317293 0.004096850043450298 0.0053827685785799899 0.0055483405818970259 0.010200021761997425 0.0067816956324499109 -0.0034572537478620401 0.00071294025787839574 0.0038165911375092352 0.0034800449122644322 -0.0023624659518250496 -0.0022938131455905865 0.00092209193524236911 0.018879605019992252 0.0022680322928904581 0.0016773727703911776 0.0012895394270574781 -0.0038977935887599645 -0.0029977193667141142 -0.0033435282270074061 -0.023140668419144528 9.5729786003693953e-05 -0.011099283459664482 0.00012714067258800109 -0.01131107964711462 -0.00076153695635239273
leaf_weight=25086 9359 51232 2949 22427 24581 6947 13128 10916 1886 5253 21520 77986 11555 13270 14769 14763 2755 265 11590 13151 11582 23578 488 21276 278 5038 984 4994 940 18287
leaf_count=25086 9359 51232 2949 22427 24581 6947 13128 10916 1886 5253 21520 77986 11555 13270 14769 14763 2755 265 11590 13151 11582 23578 488 21276 278 5038 984 4994 940 18287
internal_value=0 0.00037382 -0.000470987 -0.000123184 -0.000446736 -0.000850822 0.00191675 0.0015692 0.00120725 0.00106367 -0.00103725 -0.000717452 0.000814024 0.000469916 -0.000344935 -1.87048e-05 -0.00426419 0.00295513 1.36953e-05 -0.000330249 -0.000750574 -0.00469799 0.00595042 -0.00385756 -0.00724662 -0.0021803 -0.00290821 -0.0021192 -0.0028336 0.000432864
internal_weight=0 407141 263090 238587 215895 191314 144051 130923 120007 118121 184367 162847 112380 100825 137761 116970 35692 22692 87555 75965 62814 32937 5741 24503 3227 20791 15753 20697 15703 96273
internal_count=442833 407141 263090 238587 215895 191314 144051 130923 120007 118121 184367 162847 112380 100825 137761 116970 35692 22692 87555 75965 62814 32937 5741 24503 3227 20791 15753 20697 15703 96273
is_linear=0
shrinkage=0.1


Tree=30
num_leaves=31
num_cat=0
split_feature=9 0 3 6 5 2 0 4 1 13 8 3 6 5 0 0 1 0 1 2 0 1 4 1 0 0 0 0 0 0
split_gain=57.1773 44.2729 30.532 34.8891 21.5606 22.3838 15.348 11.8468 8.82822 8.03686 8.58386 7.96969 9.18778 7.96936 8.31426 7.74168 7.2685 6.52783 6.21585 5.90378 4.56602 4.47383 4.40567 3.90542 3.54793 3.47645 3.39038 3.36863 3.30402 2.90985
threshold=1.0000000180025095e-35 3.1550000000000007 1.0000000180025095e-35 1.0000000180025095e-35 1.0000000180025095e-35 1.0000000180025095e-35 0.90500000000000014 1.0000000180025095e-35 1.0000000180025095e-35 1.0000000180025095e-35 1.0000000180025095e-35 1.0000000180025095e-35 1.0000000180025095e-35 1.0000000180025095e-35 6.2650000000000006 1.6050000000000002 0.0097811258667990907 2.7550000000000003 1.0000000180025095e-35 1.0000000180025095e-35 0.54500000000000015 0.0097811258667990907 1.0000000180025095e-35 0.0097811258667990907 4.7250000000000005 1.635 4.9650000000000007 1.6450000000000002 0.80500000000000016 1.4850000000000001
decision_type=2 2 2 2 2 2 2 2 2 2 2 2 2 2 2 2 2 2 2 2 2 2 2 2 2 2 2 2 2 2
left_child=1 2 3 4 5 6 20 9 11 10 15 12 13 14 19 -8 -6 28 29 22 -1 -12 -3 -9 -19 -17 -15 -4 -2 -5
right_child=17 8 27 18 16 -7 7 23 -10 -11 21 -13 -14 26 -16 25 -18 24 -20 -21 -22 -23 -24 -25 -26 -27 -28 -29 -30 -31
leaf_value=-0.0056331970050430384 -0.0076558380268435368 0.00028166109783140183 0.0017445620004109411 0.0013405026106666478 0.0015107428304775171 0.0013800228204649725 -0.0031926962767463902 0.00063202987397376206 0.0090179584459377966 0.00010365243300422818 -0.00035858156911351832 0.0063000100742146674 0.0063244063480432785 0.0046126698256088068 0.0093611150192972944 0.0026132639805500463 0.010388855332829223 -0.0022960636888345784 0.0093530120865269236 0.0041569860631686757 -0.0028007570350841119 0.0066048853744491197 0.003272945833568572 0.007089806579025644 0.0054064397863443428 -0.0015965980954682681 0.013757425251020148 0.0037788001334888572 -0.0042954662307571221 0.0034372455925542563
leaf_weight=8212 3404 34159 15778 11340 28491 32667 42022 24956 2161 28539 24991 5114 4895 5300 1265 2020 953 10820 1419 5686 18542 958 5753 973 633 67793 439 16817 20835 15898
leaf_count=8212 3404 34159 15778 11340 28491 32667 42022 24956 2161 28539 24991 5114 4895 5300 1265 2020 953 10820 1419 5686 18542 958 5753 973 633 67793 439 16817 20835 15898
internal_value=0 0.000336438 -0.000117131 -0.000423456 -0.000762296 -0.00106184 -0.00142607 -0.00111378 0.00273389 -0.00142373 -0.00174009 0.002517 0.00218052 0.00179491 0.00136417 -0.00212029 0.0017981 -0.00383777 0.00290046 0.00114231 -0.00367016 -0.0001015 0.000712831 0.000874362 -0.00187035 -0.00147479 0.00531219 0.0027941 -0.00476738 0.00256431
internal_weight=0 407141 342369 309774 281117 251673 219006 192252 64772 166323 137784 62611 57497 52602 46863 111835 29444 35692 28657 45598 26754 25949 39912 25929 11453 69813 5739 32595 24239 27238
internal_count=442833 407141 342369 309774 281117 251673 219006 192252 64772 166323 137784 62611 57497 52602 46863 111835 29444 35692 28657 45598 26754 25949 39912 25929 11453 69813 5739 32595 24239 27238
is_linear=0
shrinkage=0.1


Tree=31
num_leaves=31
num_cat=0
split_feature=9 0 11 7 0 1 3 6 11 3 6 12 14 0 2 5 0 1 0 1 7 0 0 14 12 0 0 0 0 1
split_gain=46.3136 36.6875 22.2756 21.9818 19.523 14.4176 11.3734 11.5937 10.795 7.76505 8.04727 7.03505 8.77309 6.03007 5.91277 7.68159 5.62098 4.79172 4.26088 4.20591 3.87079 4.67011 3.77765 3.42078 4.74304 2.63472 5.47581 2.48825 5.93488 2.47241
threshold=1.0000000180025095e-35 1.405 1.0000000180025095e-35 1.0000000180025095e-35 3.2250000000000005 1.0000000180025095e-35 1.0000000180025095e-35 1.0000000180025095e-35 1.0000000180025095e-35 1.0000000180025095e-35 1.0000000180025095e-35 1.0000000180025095e-35 1.0000000180025095e-35 4.745000000000001 1.0000000180025095e-35 1.0000000180025095e-35 3.6150000000000007 1.0000000180025095e-35 1.4950000000000003 1.0000000180025095e-35 1.0000000180025095e-35 0.53500000000000014 1.0250000000000001 1.0000000180025095e-35 1.0000000180025095e-35 2.4850000000000008 2.4750000000000005 1.4650000000000001 1.5650000000000002 0.0097811258667990907
decision_type=2 2 2 2 2 2 2 2 2 2 2 2 2 2 2 2 2 2 2 2 2 2 2 2 2 2 2 2 2 2
left_child=1 8 3 4 5 6 7 14 9 10 17 12 13 19 15 25 22 20 -5 -6 21 -1 -2 24 -23 26 -3 -4 -29 -7
right_child=16 2 27 18 11 29 -8 -9 -10 -11 -12 -13 -14 -15 -16 -17 -18 -19 -20 -21 -22 23 -24 -25 -26 -27 -28 28 -30 -31
leaf_value=-0.0038164939057556248 -0.0064369885735300891 -0.00058278949663586287 0.00269777309833481 -0.0065971207150123407 0.0037772339603442742 0.0041174088181058065 0.0030626185696120524 0.0029962630927675513 -0.0040408288431537332 0.0016055454173677089 0.0014785309178244306 -1.6636480240239982e-05 3.1762931870541512e-05 0.0083690728259385519 0.0018332629528000296 0.0019274136658597432 0.00093804204735542648 0.0030167651345726545 -0.0012495587133916689 0.0099885413529629194 -0.0033969930743976864 -0.00036035624688937281 -0.0033763492661626213 -0.0027372038836427238 -0.0026942973271647727 0.00026994681324568891 -0.0064211556758855398 -0.0087338253953974307 -0.0016722487020103102 0.0081385763615402212
leaf_weight=6783 4703 54755 1171 1590 28838 3710 21671 18217 11612 11655 10631 5250 5126 3553 21753 18302 2694 2357 23692 1133 10063 48952 28295 10449 10591 45304 1655 1251 24476 2601
